tree
version=v4
num_class=1
num_tree_per_iteration=1
label_index=0
max_feature_idx=17
objective=lambdarank
feature_names=bm25_score cosine_score initial_score initial_rank_recip popularity duration_min release_year track_age_at_session turn_number history_track_count query_track_overlap query_track_jaccard artist_in_query album_in_query tag_overlap_query same_artist_as_history same_album_as_history tag_overlap_history
feature_infos=[0:584.40576171875] [0:0.88242125511169434] [0:1] [2.1529452290733725e-05:0.5] [0:93] [0:42.638114929199219] [-1:2022] [-12:118] [1:8] [0:7] [0:325] [0:0.78431372549019607] [0:1] [0:1] [0:323] [0:1] [0:1] [0:323]
tree_sizes=7136 7203 7183 7165 7185 7191 7159 7178 7206 7196 7228 7154 7161 7140 7163 7228 7160 7186 7196 7175 7206 7176 7181 7187 7170 7174 7203 7154 7197 7197 7163 7204 7175 7201 7183 7152 7169 7163 7165 7209 7175 7144 7156 7192 7199 7197 7201 7187 7145 7205 7176 7151 7141 7186 7159 7188 7275 7170 7196 7199 7180 7229 7191 7177 7226 7203 7192 7153 7215 7149 7172 7144 7170 7166 7198 7257 7106 7161 7087 7265 7166 7124 7205 7136 7146 7175 7281 7166 7201 7196 7197 7167 7153 7148 7126 7249 7139 7181 7162 7121 7288 7081 7153 7108 7206 7140 7123 7165 7194 7188 7159 7162 7090 7178 7176 7101 7142 7149 7160 7186 7199 7153 7117 7181 7205 7144 7188 7142 7209 7206 7032 7189 7075 7134 7042 7224 7171 7298 7019 7078 7074 7147 7234 7091 7024 7212 7263 7139 7120 7125 7060 7128 7196 7025 7174 7120 7187 7227 7062 7023 7101 7202 6974 7017 6984 7025 7203 6990 6976 7073 7101 7259 7185 7016 7160 7210 7113 7205 7015 7085 6956 6995 6972 6965 7114 7044 7065 7120 6926 6940 6983 7152 7140 7185 7019 7142 6900 7200 7200 6930 7179 7247 7163 7003 7170 7118 7175 7054 7026 7086 7267 7052 7016 7091 7084 7036 7246 7179 7002 7188 6951 7089 7116 7060 7100 6985 7228 7124 6903 7115 7065 7024 7196 7020 7206 7148 7223 7038 7095 7267 7176 7158 7201 7170 7119 7211 6930 6969 7104 6972 7016 7129 7044 7146 6963 7091 6951 6950 6938 6992 6968 7026 7052 7039 7164 7236 7123 7133 7077 7066 7243 7009 7193 6959 6991 7109 6970 7012 6962 7204 6965 7022 7065 7188 7049 6976 6930 7004 7084 6989 7221 7211 7148 7128 7093 7172 6902 7007 6965 6961

Tree=0
num_leaves=63
num_cat=0
split_feature=3 15 2 1 16 0 1 3 17 1 4 14 3 8 12 8 3 10 12 4 12 1 3 0 1 1 1 0 2 1 1 7 17 3 8 1 2 4 8 3 8 3 1 4 14 10 1 3 7 3 10 14 8 2 3 8 0 14 14 4 1 0
split_gain=150056 227460 71426.2 17227.9 14578.6 4871.08 4778.02 4668.93 4480.23 3962.49 3807.61 3755.9 3406 6396.81 2676.53 2343.76 2342.78 2273.17 2349.47 1455.88 1430.83 1196.5 888.499 874.703 1190.36 843.117 829.02 815.691 729.785 720.348 702.492 658.466 580.524 708.56 687.506 558.452 543.487 521.143 511.696 1299.09 503.129 487.614 478.446 453.381 419.259 397.111 388.248 376.526 375.986 348.218 331.995 326.676 310.905 306.68 291.153 1073.59 288.471 279.268 273.479 272.114 267.224 267.62
threshold=0.0033277962347729793 1.0000000180025095e-35 0.8490581512451173 0.19738984107971194 1.0000000180025095e-35 256.79421997070318 0.1662419065833092 0.18333333333333338 33.500000000000007 0.26358556747436529 66.500000000000014 40.500000000000007 0.18333333333333338 4.5000000000000009 1.0000000180025095e-35 1.5000000000000002 0.18333333333333338 13.500000000000002 1.0000000180025095e-35 44.500000000000007 1.0000000180025095e-35 0.27148431539535528 0.22500000000000003 116.09706878662111 0.3127016574144364 0.12543815374374392 0.13637770712375644 40.056003570556648 0.4872997254133225 0.14166636019945147 0.1642841845750809 -1.0000000180025095e-35 12.500000000000002 0.41666666666666669 3.5000000000000004 0.13879957050085071 0.50094658136367809 62.500000000000007 3.5000000000000004 0.22500000000000003 3.5000000000000004 0.15476190476190479 0.15470967441797259 67.500000000000014 44.500000000000007 19.500000000000004 0.2245377525687218 0.022474747474747477 -1.0000000180025095e-35 0.15476190476190479 41.500000000000007 44.500000000000007 6.5000000000000009 0.70532897114753734 0.29166666666666669 2.5000000000000004 31.820939064025882 56.500000000000007 40.500000000000007 51.500000000000007 0.3127016574144364 115.64205932617189
decision_type=2 2 2 2 2 2 2 2 2 2 2 2 2 2 2 2 2 2 2 2 2 2 2 2 2 2 2 2 2 2 2 2 2 2 2 2 2 2 2 2 2 2 2 2 2 2 2 2 2 2 2 2 2 2 2 2 2 2 2 2 2 2
left_child=-1 3 4 10 6 9 29 49 14 11 17 26 19 38 27 20 -4 18 -2 60 -12 40 44 -21 36 -20 -6 -5 30 -3 -13 -16 33 34 -18 -17 -25 56 54 -40 47 48 -19 -10 -15 -28 -32 -8 -27 -7 -31 -41 -51 -9 -14 -56 -33 -42 -37 -50 61 -11
right_child=1 2 16 8 5 7 21 53 43 12 15 28 13 22 31 35 32 42 25 23 -22 -23 -24 24 -26 41 45 -29 -30 50 46 37 -34 -35 -36 58 -38 -39 39 51 57 -43 -44 -45 -46 -47 -48 -49 59 52 -52 -53 -54 -55 55 -57 -58 -59 -60 -61 -62 -63
leaf_value=0.098305298050159862 -0.084613606725791699 -0.071808187965317211 0.023307253553365354 -0.075562713630397529 -0.022490419532037106 0.058909793475277396 -0.012714670596243566 -0.027161447786407434 -0.070717744610869812 0.081153470172422359 -0.046758157824599078 -0.037985924848581161 0.068893641684018445 -0.03251490291712536 -0.075473037355383202 -0.078195758665084061 0.047276003313380326 -0.095231048989539019 -0.064659387741959326 0.07631079849046038 0.047804687650634822 0.039185583151958629 -0.058589846796388879 0.050330867910755472 0.06323378700369077 -0.094735476031731922 0.062566606764108287 0.016045982546552429 -0.013820351210977622 -0.0073008452456557391 0.010624627441813712 -0.0036257360071533101 -0.096972700831903069 -0.094841684554194672 -0.064678204005785306 -0.018240392068646531 0.02221280003649706 0.063267204469155486 0.06498245207854203 -0.048822570351142687 0.0056699986837883435 -0.060202041488365082 -0.083110401592489683 -0.024261978326705475 0.021364176538209941 0.046076177338398749 0.033641447746054418 0.025738421092170144 -0.013905624164151729 0.051207390683091915 -0.051928123281358846 0.016123380322997115 -0.033433706148193069 -0.079659960517124095 0.063835228533522845 -0.024080844094919229 0.035259647744736243 -0.01663504664277041 -0.057667000040358234 0.029422372064839986 0.081675885216082031 0.063074588669280396
leaf_weight=33328.085579915874 8420.8212485135446 1897.854054244468 451.78064349184569 839.28657811401354 356.83370777909295 1454.6013724093064 784.04687322047539 355.52298020350281 2178.9899144188748 3367.6210576602898 818.17907386866864 490.59804645946133 5488.7051824956434 640.23262926237658 128.61011021787272 4640.2537428711439 229.24639803508762 45947.006144390391 1753.288317630715 5640.9688235061258 782.71021297162224 3549.7767313515724 1326.1663497958798 3711.5584802163357 12326.67438310141 112.481333826021 7599.8868141767816 342.01210831842764 1997.7599672095312 947.2543478846419 3206.5152243105913 620.10301753592648 9798.142188692349 696.7272753464058 341.27632046071813 502.67109948492725 3200.3882223488981 1475.7930453037407 1317.17637555697 390.47961961757392 3116.4880160902248 545.63605830754386 9895.2668004963925 691.9878578329226 828.03948599169962 7025.8339027509355 4274.5107329269231 3385.362232128864 1155.3530860548271 211.9793199695996 744.12464550754521 384.05947213317268 222.23887701903004 1278.7874109359691 1902.727617200464 424.7719195750542 2065.9501071202976 2552.8165407020206 3518.2106864392044 527.96549402875826 12208.490643118828 5219.8374178248487
leaf_count=170440 3422165 728919 12260 21778 100528 29844 190346 7193 457398 59230 282324 268483 43303 18700 9768 1695232 2586 17365201 730653 111549 67688 161664 30574 124042 255530 28846 332922 23145 112729 192627 464028 33328 178710 11162 10878 96931 110415 21854 11616 9228 506188 9556 4191010 102158 12662 449760 211424 208794 158624 3114 358170 4907 7285 35347 11355 6967 69823 458296 1380373 48277 166187 120354
internal_value=-5.99969e-09 -0.0161946 0.029839 -0.0772539 0.042943 0.0512265 0.000567279 -0.00636076 -0.00893641 0.0536612 -0.0845034 0.0369839 0.0607895 0.0378878 0.0176046 -0.056104 -0.0882974 -0.0887667 -0.0695071 0.0671584 -0.000524289 0.014301 -0.0289241 0.0589971 0.0539206 -0.0384404 0.0528079 -0.04904 0.0132027 -0.0506621 0.019975 0.035954 -0.092854 -0.0610093 -0.019693 -0.0663772 0.0373116 0.0393973 0.0567314 0.0347664 0.00532277 -0.0188074 -0.0930833 -0.0595206 -0.00212952 0.054645 0.023776 0.0185074 -0.00623003 0.0471802 -0.0269347 -0.0166188 0.00788691 -0.0682396 0.0626096 0.0477904 0.0262826 -0.00437368 -0.0527381 -0.000315988 0.0769223 0.0701643
internal_weight=235639 202310 115348 86962.6 103831 86853 16977.7 3523.13 8342.73 83329.8 78619.8 24951.9 58377.9 12702.4 5471.75 10262 11517.2 68357.8 12515.5 45675.5 1600.89 13388.5 2794.44 24879.6 19238.6 4094.72 14982.6 1181.3 9969.38 3589.23 7971.62 4290.46 11065.4 1267.25 570.523 8661.14 6911.95 4161.85 9907.92 2091.72 9838.71 2341.44 55842.3 2870.98 1468.27 14625.7 7481.03 4169.41 1795.8 1888.82 1691.38 774.539 434.218 1634.31 7816.2 2327.5 2686.05 5669.3 4020.88 1683.32 20795.9 8587.46
internal_count=36526448 36356008 6139876 30216132 5924280 3119276 2805004 82783 739252 3036493 29476880 1939874 1096619 149312 179696 3522548 215596 25954332 4398121 947307 350012 1525288 61936 601536 489987 975956 883210 44923 1056664 1279716 943935 134773 203336 24626 13464 3172536 234457 125005 87376 25751 1363624 245303 21556211 559556 31362 782682 675452 399140 235747 40243 550797 14135 10399 42540 61625 18322 103151 964484 1477304 206901 345771 179584
is_linear=0
shrinkage=0.05


Tree=1
num_leaves=63
num_cat=0
split_feature=1 15 2 4 11 1 11 2 2 11 17 1 2 1 11 1 1 17 2 14 8 4 1 4 4 17 1 7 1 17 10 7 12 17 0 7 4 1 17 0 1 1 4 11 14 11 17 1 11 17 17 11 2 1 4 7 0 11 17 4 4 1
split_gain=219470 309132 47440.9 37176.2 21933 16401.7 36262.9 15400.2 12256.4 8629.69 12376.8 7133.65 6548.57 6352.61 6282 4441.94 4033.57 3987.38 3856.56 3695.31 3366.47 3163.88 3155.45 2824.81 2615.29 2124.95 2807.4 1829.47 1667.44 1995.67 1738.91 1544.17 1499.58 1497.87 1441.31 1440.21 1360.24 1288.88 2360.01 1379.21 1277.91 1268.69 1261.78 1256.54 1191.19 1139.04 1436.62 1427.05 1093.73 1045.04 987.094 981.491 979.51 958.628 947.148 919.538 976.884 846.21 4445.45 841.727 838.962 789.203
threshold=0.063104987144470229 1.0000000180025095e-35 0.18919178098440173 69.500000000000014 0.081099981099981108 0.23843834549188617 0.071045441472533805 0.70532897114753734 0.42156919836997991 0.09527196369301634 12.500000000000002 0.089461311697959914 0.24893124401569369 0.199460044503212 0.11043408852547267 0.10814566165208818 0.1359861418604851 14.500000000000002 0.95858630537986766 29.500000000000004 2.5000000000000004 58.500000000000007 0.15840066969394687 67.500000000000014 67.500000000000014 18.500000000000004 0.14208690077066424 8.5000000000000018 0.11742826178669931 19.500000000000004 20.500000000000004 8.5000000000000018 1.0000000180025095e-35 21.500000000000004 120.2200164794922 -1.0000000180025095e-35 57.500000000000007 0.054325774312019355 1.5000000000000002 15.172323226928713 0.14208690077066424 0.28946691751480108 62.500000000000007 0.098962179960610547 23.500000000000004 0.11629556325251526 20.500000000000004 0.10990165546536447 0.075776098392235328 21.500000000000004 105.50000000000001 0.044879787710211658 0.13348607718944552 0.080772653222084059 59.500000000000007 -1.0000000180025095e-35 88.590755462646499 0.055282421724004646 1.0000000180025095e-35 60.500000000000007 33.500000000000007 0.11653148755431177
decision_type=2 2 2 2 2 2 2 2 2 2 2 2 2 2 2 2 2 2 2 2 2 2 2 2 2 2 2 2 2 2 2 2 2 2 2 2 2 2 2 2 2 2 2 2 2 2 2 2 2 2 2 2 2 2 2 2 2 2 2 2 2 2
left_child=8 2 4 7 20 6 12 9 37 10 16 17 40 19 25 33 36 -6 27 42 52 -11 -9 -13 43 26 44 55 29 -16 -30 -15 -18 48 -27 -14 57 -1 39 -39 -3 60 -8 49 -5 46 -23 -48 -12 -21 -43 -37 -2 -19 -17 -7 -57 58 -4 -10 -29 -51
right_child=1 5 3 14 11 18 13 22 59 21 15 23 35 31 28 54 32 53 -20 24 -22 45 -24 -25 -26 34 -28 41 30 -31 -32 -33 -34 -35 -36 51 -38 38 -40 -41 -42 50 -44 -45 -46 -47 47 -49 -50 61 -52 -53 -54 -55 -56 56 -58 -59 -60 -61 -62 -63
leaf_value=0.09112845942644443 0.049726332049700742 0.086404070000654878 -0.071461712263571772 -0.0046739212580656003 -0.041435339585179393 -0.00048262407820393727 -0.0085875078137811166 -0.044059430226465024 -0.046789913683698892 -0.079145454579033256 0.048302876069016294 -0.064546268701861309 -0.053233841102901247 0.024994307516488189 -0.05473350368982989 -0.038354628017628171 -0.062186711550553844 0.069822555622818611 -0.067548471939705548 -0.08301136365154764 0.077867457280125396 -0.071024669169676799 0.030415036601796903 0.0067317961992579348 0.0028571386372341387 0.059907623400824533 0.048197422186922585 0.043278062443430521 0.054537464841056975 0.025392895062698491 -0.038100298566562489 -0.002044076764940287 -0.0041900514158951536 0.057142461952091231 -0.013521704764345388 0.046074917496936485 -0.048565324365495349 0.059854581736007509 0.086352326863471343 -0.018801305451653056 0.059388723077957256 0.040038872967337484 0.034621286143729946 -0.04745241692535368 -0.067522121704852098 -0.065779460359298825 0.032196753068927088 -0.039205180715044183 -0.043120846368257353 0.051984810202017312 -0.048648723459895522 0.02458750569111565 -0.030643894636521393 0.019858632759247735 0.014959555144005552 0.056697235826800522 0.043265959250204884 -0.078403020648005931 0.045774153578129355 0.022301504561097047 0.020432519694841889 -0.017139123470758643
leaf_weight=56961.255664493423 609.58205122164509 8651.2157371076246 8860.4889735056349 5820.9877793053893 1876.4663239722722 1041.8944748247741 6871.8243386400063 2026.9870046835567 1707.7618771677371 106580.83927544406 545.91758257360198 7904.675001088006 486.50881052887416 8838.690667551753 1087.3039293517941 5164.9311096675228 1609.2007582322403 2134.0591659458587 832.16025908765732 541.48597880170564 9528.466499125585 2555.3818343880994 4767.5397562528669 1686.5904538345203 3901.2315949242766 3630.7022928360384 2625.8524265806191 5121.706558597507 525.93356297668652 2723.8314916299132 13761.140230834324 13116.966600021493 3625.9787510834285 2882.4110594174126 819.03178582439432 9266.3735452413821 6876.3694712171273 1327.6326875874074 6121.9958944958635 960.55195700755576 8861.0786580062122 48016.019409289525 2240.439481176174 17867.071781644743 866.11807774851331 20034.622768638175 905.10419468209147 3084.6357871601067 816.29993659391766 468.47565752208175 315.80569505903986 12461.182695013224 1002.6784102167294 1745.011303598294 993.25515246411669 18449.318726048601 50852.716548418422 22456.6324473282 889.80378333645058 594.20234700368019 18659.178131728491 3482.3724046803254
leaf_count=91056 20395 47012 1051248 299983 202493 29583 369920 183915 156005 15907135 21639 1018542 30254 268572 132228 612699 211661 37483 124717 73533 124771 335442 133479 118392 216758 99344 35389 84750 6239 155465 1517955 600266 188623 85734 71041 141930 685878 31031 32897 82695 114277 572582 70476 1587836 119165 2813453 44807 349268 93419 13434 32807 309669 103341 97685 67847 148391 626106 2973457 35804 22494 491100 200878
internal_value=-7.54002e-10 -0.011582 -0.0501557 -0.0575588 0.0131604 0.0290269 0.0131562 -0.065753 0.0844378 -0.0684273 -0.0517112 -0.0256051 0.0498708 -0.0122855 -0.00749081 -0.00263029 -0.0632319 0.0184009 0.0397767 -0.0253984 0.0665615 -0.0752966 0.00819733 -0.0520123 -0.034918 0.017969 0.00438855 0.0404037 -0.0268516 0.00253311 -0.0346901 0.00884077 -0.0220172 0.0367236 0.046392 0.0318464 -0.0687526 0.0884308 0.0701595 0.0268358 0.0727345 0.0348074 0.00203627 -0.041509 -0.0128141 -0.0598634 -0.0417544 -0.0230071 -0.00648219 -0.0178706 0.0394594 0.0337515 -0.000256591 0.0473461 -0.0297556 0.0461406 0.0468416 -0.0730627 -0.0607629 -0.0289555 0.0253528 -0.00894269
internal_weight=561042 493369 253025 226537 26487.5 240344 97054.9 194676 67673.4 187882 54721.3 15346.8 39726.4 57328.6 31860.9 10402.8 44318.5 5755.54 143289 35372.9 11140.7 133161 6794.53 9591.27 26260.6 13762.7 9312.96 142457 18098.2 3811.14 14287.1 21955.7 5235.18 4244.63 4449.73 22214.1 39083.3 65371.4 8410.18 2288.18 17512.3 72112.7 9112.26 22359.4 6687.11 26579.7 6545.12 3989.74 1362.22 4492.33 48331.8 21727.6 1612.26 3879.07 6158.19 70343.9 69302 32206.9 9750.29 2301.96 23780.9 3950.85
internal_count=36526448 36110270 29955419 28232317 1723102 6154851 4044815 25795508 416178 25478114 6028009 1474595 643142 3401673 2436809 881338 5146671 337661 2110036 2532835 248507 19450105 317394 1136934 2092439 624922 454537 1985319 1811887 287693 1524194 868838 400284 200792 170385 481853 4746387 237679 146623 113726 161289 1181239 440396 1875681 419148 3542970 729517 394075 115058 287845 605389 451599 123736 135168 680546 804080 774497 4060509 1087052 178499 575850 214312
is_linear=0
shrinkage=0.05


Tree=2
num_leaves=63
num_cat=0
split_feature=3 1 3 15 3 3 15 14 3 0 2 4 17 10 12 16 3 1 4 16 4 14 3 0 9 2 12 3 1 11 9 14 9 3 9 11 4 4 11 3 11 4 4 4 3 14 12 4 3 0 2 0 14 1 0 1 11 4 3 11 11 3
split_gain=496122 343130 24718.2 16270.1 5139.5 5127.41 3782.14 2623.86 2224.27 2877.88 3197.77 2178.45 1955.05 1939.66 2797.3 1616.64 1464.12 1163.22 1132.65 916.308 850.644 837.138 832.948 814.286 899.23 794.589 1101.76 763.911 691.652 676.049 633.971 628.676 628.494 573.76 1802.33 556.021 550.936 528.756 506.177 495.515 481.582 709.876 479.687 479.36 471.403 479.428 796.504 418.799 403.498 409.344 448.765 401.801 395.607 389.944 386.835 385.289 382.399 450.671 371.586 345.594 327.402 396.689
threshold=0.0033277962347729793 0.18669131398200992 0.039230769230769243 1.0000000180025095e-35 0.028991596638655467 0.023532668881506093 1.0000000180025095e-35 22.500000000000004 0.06458333333333334 185.56726074218753 0.73598021268844616 70.500000000000014 17.500000000000004 17.500000000000004 1.0000000180025095e-35 1.0000000180025095e-35 0.29166666666666669 0.14727579802274707 74.500000000000014 1.0000000180025095e-35 61.500000000000007 53.500000000000007 0.18333333333333338 69.208259582519545 3.5000000000000004 0.44877067208290106 1.0000000180025095e-35 0.022991543340380553 0.12169964611530305 0.10006501950585177 4.5000000000000009 32.500000000000007 4.5000000000000009 0.15476190476190479 4.5000000000000009 0.1362432843243698 70.500000000000014 60.500000000000007 0.10065826057441632 0.11805555555555557 0.11200649350649351 62.500000000000007 58.500000000000007 62.500000000000007 0.009569597069597072 16.500000000000004 1.0000000180025095e-35 63.500000000000007 0.18333333333333338 256.79421997070318 0.61510840058326732 28.539143562316898 52.500000000000007 0.11742826178669931 28.539143562316898 0.11258904263377191 0.13555773848504696 57.500000000000007 0.13392857142857145 0.10620192029614207 0.14609312643177744 0.13392857142857145
decision_type=2 2 2 2 2 2 2 2 2 2 2 2 2 2 2 2 2 2 2 2 2 2 2 2 2 2 2 2 2 2 2 2 2 2 2 2 2 2 2 2 2 2 2 2 2 2 2 2 2 2 2 2 2 2 2 2 2 2 2 2 2 2
left_child=59 3 6 5 7 11 12 55 19 22 18 44 42 14 54 20 32 -9 29 37 -8 -19 33 24 43 -13 -27 40 -16 39 51 -6 -12 52 -35 -21 -15 -4 -36 -11 -25 -42 -3 -17 -2 46 -46 -14 49 50 -31 -24 -10 -48 -7 -5 -29 -58 -34 -1 61 -52
right_child=1 2 8 4 31 13 15 17 9 10 16 25 47 36 28 23 -18 21 -20 35 -22 -23 30 27 -26 26 -28 56 -30 48 -32 -33 58 34 38 -37 -38 -39 -40 -41 41 -43 -44 -45 45 -47 53 -49 -50 -51 60 -53 -54 -55 -56 -57 57 -59 -60 -61 -62 -63
leaf_value=0.086464226593212928 -0.083175610573517952 -0.024879682126017474 -0.0072637017092785656 -0.06419531538937992 0.019764996165816156 -0.068984491275415671 -0.028827760468537827 -0.075334889254705092 0.038560236627790304 0.018119374798974557 0.028652908822936488 -0.067563860144407004 -0.07116969411641387 -0.072119310102736409 -0.044457258352140691 -0.01500709626565231 -0.079991132462420386 -0.035571885746364176 -0.016935405255316709 0.027550274389693361 0.0045963921269035366 -0.064566327466714563 -0.0089428174060979908 -0.005536591702358035 0.039072241214066876 -0.0634568064637797 6.9065069878197484e-05 0.010042454199787236 0.01057276561402855 0.02901645720027109 -0.0033316965778140751 -0.016379110922864308 0.010699115505755707 0.03217966419071374 -0.056471425082869134 0.012390930722974355 -0.032625689449416878 0.02159368176305573 0.0084535312102950906 -0.051551836281833074 -0.038779326240165148 0.0076243956253638015 0.028213219974153721 0.033044015743916237 -0.076759155270493928 -0.079969323549578461 -0.064403148572156371 -0.039798138823997187 0.044292733792307651 0.048874363890849225 0.012916792220408597 0.050059569919861414 0.028261124072104949 -0.026405776575492087 -0.026169318327699281 -0.024134007813313568 -0.019670423842284748 0.012008018483325188 -0.038601967807547176 0.077749720490622454 0.017869958437068494 -0.055714130864459144
leaf_weight=116829.33834787121 115952.5198000884 871.5888377695228 4888.5776864716318 642.30612275359454 3364.2202632079716 3067.3484304967715 8736.4317975731974 6771.5006153014256 48703.9096411707 588.4823591420427 872.49531555859721 13587.202964046184 3335.1013695198926 6654.9715168680996 707.29110814433079 1947.6713232825859 897.51070049620466 5568.0684791067906 1507.0087401906494 17083.590088294994 2433.8743501316058 4502.5577260939754 293.78542504255893 12992.57843133391 2623.4430785218137 1743.6037453795434 1121.5834463704377 11219.345449738816 2962.9634983386641 16562.250876479724 599.65408996641054 1872.8021498500602 556.4272665764438 7666.0579891205998 795.35641260095872 9364.5256489041494 1018.1530381790362 2350.6729630968766 482.21828031720361 450.62808886135463 2849.8725571994437 1159.4901538810227 831.08375927212182 707.60034011496464 5612.7789251343347 23325.464498555055 1244.8392988013802 1562.1167722490791 3729.3363203997724 1908.730540382443 512.35994567465968 16172.10692049205 11531.712353717536 1475.5448109581484 637.14152068077237 9149.4261425578152 2802.0740534187062 1873.3104224619456 1220.5854674165021 12604.199332314136 5170.8714036206948 357.42849255830515
leaf_count=90769 20173157 70364 234504 68167 92549 329055 636126 883952 425423 6586 21235 1840271 680124 1000049 63691 36084 152703 445212 26598 220301 122167 534857 10776 275912 26091 127379 28880 210102 105592 161858 33862 123984 8067 47796 10133 206976 92625 75803 5120 9776 203367 48448 16414 8046 761087 4113532 154481 217683 44748 24518 3926 134199 191397 116814 58310 373464 108000 51404 62771 79671 36244 3248
internal_value=-2.66402e-10 -0.0263098 0.0189021 -0.0713566 -0.0384406 -0.0772136 -0.00956888 -0.0473441 0.0292273 0.0324007 0.0201581 -0.0797757 -0.0451166 -0.0492801 -0.0309693 -0.00481444 -0.0247975 -0.0593102 0.0253374 0.0178685 -0.021545 -0.0485352 0.0372745 8.10225e-05 0.0183107 -0.062518 -0.0385895 -0.00284417 -3.20155e-05 0.0275132 0.0471678 0.00683957 -0.00610083 0.0348339 0.0230167 0.0221828 -0.0668789 0.00210664 -0.0319656 -0.0120947 -0.0102112 -0.0253596 0.00103525 -0.00220201 -0.0816992 -0.0762916 -0.0659973 -0.0611628 0.0289705 0.0266393 0.0247616 0.0490068 0.0365885 -0.0437933 -0.0616206 -0.0267619 0.00503604 -0.00697766 -0.0231646 0.0856156 0.0130958 -0.0152862
internal_weight=550628 421194 210212 210982 31870.9 179111 55945.6 26633.9 154266 120579 34334.1 164064 6599.89 15047.9 7374.74 49345.7 3547.02 16842.1 30787.1 33687.4 11170.3 10070.6 86244.8 38175.4 5278.71 16452.4 2865.19 32896.7 3670.25 29280.1 17065.5 5237.02 2649.51 69179.3 8943.63 26448.1 7673.12 7239.25 1277.57 1039.11 17001.9 4009.36 1702.67 2655.27 147611 31658.6 8333.16 4897.22 28241 24511.6 22602.9 16465.9 60235.6 2720.38 3704.49 9791.73 15894.7 4675.38 1777.01 129434 6040.66 869.788
internal_count=36526448 36356008 4868900 31487108 2522185 28964923 2710332 2305652 2158568 1420984 562278 27315601 984585 1649322 556648 1725747 244776 1864021 317502 737584 758293 980069 858706 967454 70221 1996530 156259 897233 169283 290904 178837 216533 92073 679869 63049 427277 1092674 310307 15253 16362 527727 251815 86778 44130 25319071 5145914 1032382 897807 274542 229794 205276 144975 616820 271295 387365 441631 369506 159404 70838 170440 43418 7174
is_linear=0
shrinkage=0.05


Tree=3
num_leaves=63
num_cat=0
split_feature=3 1 15 3 14 14 3 15 3 16 4 10 11 0 3 4 3 1 14 15 16 4 2 14 1 4 3 1 3 3 4 3 11 4 1 14 3 11 17 14 16 2 10 1 1 7 0 9 3 7 1 1 2 1 11 2 9 4 4 1 4 14
split_gain=427043 295353 16680.9 9989.29 5296.1 5172.36 4806.53 3394.74 2145.56 2047.07 1812.66 1754.59 1711.19 1680.22 2140.05 1416.46 1385.66 1137.13 1093.61 1122.9 1043.15 910.014 904.957 868.182 799.41 770.355 686.025 622.99 599.126 581.452 540.316 532.875 522.75 497.858 603.97 494.268 486.565 457.092 481.406 595.454 422.004 416.316 404.228 500.249 393.912 387.587 379.622 375.493 362.589 356.449 355.917 353.115 349.51 344.279 341.482 340.14 338.357 929.042 448.147 333.229 328.736 323.261
threshold=0.0033277962347729793 0.18981727212667468 1.0000000180025095e-35 0.048809523809523817 49.500000000000007 26.500000000000004 0.023532668881506093 1.0000000180025095e-35 0.012739370334307045 1.0000000180025095e-35 70.500000000000014 17.500000000000004 0.091805594146522188 136.5913009643555 0.41666666666666669 57.500000000000007 0.03509852216748769 0.24421171098947528 23.500000000000004 1.0000000180025095e-35 1.0000000180025095e-35 63.500000000000007 0.8490581512451173 14.500000000000002 0.14681108295917514 53.500000000000007 0.15476190476190479 0.12084184214472772 0.051315789473684217 0.087121212121212141 66.500000000000014 0.022991543340380553 0.088674598010967567 27.500000000000004 0.2245377525687218 1.5000000000000002 0.22500000000000003 0.1228208316065755 11.500000000000002 18.500000000000004 1.0000000180025095e-35 0.50094658136367809 15.500000000000002 0.12709060311317447 0.15316721051931384 3.5000000000000004 23.572246551513675 4.5000000000000009 0.022991543340380553 3.5000000000000004 0.15127395093441012 0.12213049083948137 0.48280607163906103 0.1359861418604851 0.21102406767544385 0.70532897114753734 2.5000000000000004 66.500000000000014 54.500000000000007 0.13074658811092379 50.500000000000007 53.500000000000007
decision_type=2 2 2 2 2 2 2 2 2 2 2 2 2 2 2 2 2 2 2 2 2 2 2 2 2 2 2 2 2 2 2 2 2 2 2 2 2 2 2 2 2 2 2 2 2 2 2 2 2 2 2 2 2 2 2 2 2 2 2 2 2 2
left_child=12 2 6 4 9 16 10 -6 44 21 42 15 52 26 18 24 20 31 32 -20 51 48 29 27 -8 37 56 -12 50 40 -13 -9 -15 -11 49 -26 -24 38 39 -14 -21 -31 43 -2 -7 -22 -17 -28 -3 -35 -10 -4 -1 -27 55 -43 57 -5 -58 -39 -45 -52
right_child=1 3 5 13 7 8 11 17 28 33 23 30 25 14 -16 46 -18 -19 19 22 45 -23 36 -25 35 53 47 -29 -30 41 -32 -33 -34 34 -36 -37 -38 59 -40 -41 -42 54 -44 60 -46 -47 -48 -49 -50 -51 61 -53 -54 -55 -56 -57 58 -59 -60 -61 -62 -63
leaf_value=0.081167188921422301 -0.074633934276996508 -0.030572471425111533 -0.063217327560409792 0.018041302507284359 -0.061177462486018269 -0.072930220907186483 -0.058936799417763877 -0.03873147835202663 -0.057587659667958216 0.031829904192951571 -0.047688432948817555 -0.069805393107018041 0.057838322372931808 -0.016623074354110482 -0.080954007889092572 -0.023271233659604901 0.024464167095917654 0.0031127885846363658 -0.031403130873172362 -0.0017443547389451011 0.012294104179231775 0.017738085656683809 0.012306554481547381 -0.065582518367653983 -0.062958489476508048 0.075776381851351188 0.041725145743815958 0.0062751493474373712 0.0058610765177960393 0.033484229191127909 -0.036762899461469621 -0.012496732533928308 0.013807419682718466 0.017292241042072345 0.019503845373565282 -0.0056054036510794795 -0.061947161980828495 0.047738409640662297 0.065739235193229925 -0.042539076373824758 0.019531605491597707 0.02181140644789225 -0.078862349696349421 -0.064594407618336444 -0.053951166517828955 -0.014572386201952024 0.018992565079570783 -0.0031876356477394635 -0.007336584063497755 -0.0055007840929609166 -0.016815862563174033 -0.027710342960690405 0.05112173567277184 0.056310967364309808 0.030571036538265442 -0.00090795790201596163 0.035188311696901647 0.045016022474421151 0.019677782344684938 0.0060292129930928622 -0.0306013148995057 -0.044252480623742763
leaf_weight=107848.76870146315 27772.013322643936 3389.5156061646121 865.69340149482014 16624.20178258013 4070.2191187024873 5824.4284492289298 3279.3531515988871 3332.7875739395677 1316.1241491018736 4962.2316314935451 2574.0212661538681 6232.8137567180675 382.17404686263762 2653.6706026578904 520.81446596996102 840.39013336389326 2558.1546553856751 8113.5210583485896 959.1484186087182 2632.0903031237103 2533.1624324366276 2240.1239380261977 414.9307602821209 12112.51393419964 493.01660265971441 12631.939890204842 14588.20596856359 675.10986163056805 1078.2230935023981 15580.653510544682 1543.611739455926 4616.9862573046121 3014.4478623205214 2659.7318037232035 17891.713448075869 1578.0659370902576 471.11106253182516 1343.3484482795466 4818.3651236137375 240.86199282098096 20350.985986295622 20445.791812033567 114251.54263447132 2317.8249808697437 5152.4913474586792 2855.8230984489201 1444.6897215300705 480.70870583609212 3326.8506474150636 4830.4588890313171 2636.4828050912474 3663.003321779659 976.69194898428395 2769.6040674601099 11573.610945234483 1791.7969062099 20931.448819904414 3950.5256553461077 5989.62914394174 744.14041527942754 1026.0744605866494 1811.0259271910181
leaf_count=63234 3846274 303076 108708 219424 708397 832311 342299 296875 156829 77950 190145 970758 1949 40076 98961 50139 57350 296804 81664 86274 76025 71249 17873 1794448 42886 25788 115025 28617 45706 136336 153584 242838 35397 58291 352823 77063 70446 14151 23467 7992 278414 192842 21191901 309703 585687 131687 51085 22449 190629 185937 187988 268750 6093 13327 99338 47443 146526 37001 70342 14439 97910 177455
internal_value=-7.80395e-10 -0.0252275 -0.0673082 0.0176906 0.000462644 -0.0330366 -0.0732027 -0.0203904 -0.0503239 0.0111456 -0.0757603 -0.0465295 0.0782819 0.0248523 0.020071 -0.029504 -0.00834573 -0.0100556 0.0207297 0.0223463 -0.0168087 -0.00985856 0.02305 -0.0594262 -0.0435777 0.0658684 0.0309971 -0.0364758 -0.0283476 0.0236649 -0.0632465 -0.0234951 -0.000439373 0.0173452 0.0145134 -0.0192582 -0.0271744 0.0527607 0.0603914 0.019033 0.017095 0.026722 -0.0774864 -0.0724341 -0.0640216 -0.00194344 0.00344909 0.0402924 -0.0190629 0.00259291 -0.0347471 -0.0344978 0.0808975 0.072276 0.0236058 0.0199808 0.028048 0.0232207 0.0317374 0.0328701 -0.0541636 -0.0279881
internal_weight=540599 408844 206436 202408 59434.1 30294.6 176141 20133.5 17818.8 39300.6 160729 15411.9 131756 142974 80409.1 7635.52 12475.8 16063.3 79888.2 74220.1 9917.68 8956.49 73261 15361.6 5350.44 22930.4 62564.7 3249.13 6841.86 72374.9 7776.43 7949.77 5668.12 30344.1 25381.9 2071.08 886.042 7528.89 5441.4 623.036 22983.1 49391.9 145367 31115.9 10976.9 5388.99 2285.08 15068.9 6716.37 7490.19 5763.63 4528.7 108825 15401.5 33811.2 22237.6 47495.8 20574.7 26921.1 2087.49 3343.9 4447.51
internal_count=36526448 36356008 31775308 4580700 2784869 2628496 29146812 1544914 1985976 1239955 27458998 1687814 170440 1795831 1185064 563472 642520 836517 1086103 1010630 585170 564954 928966 2013210 462248 101113 610767 218762 567978 840647 1124342 539713 75473 675001 597051 119949 88319 61998 33408 9941 364688 475959 25445788 4253887 1417998 207712 101224 137474 493705 244228 522272 377458 69327 39115 339623 240285 473293 256425 216868 28590 407613 365443
is_linear=0
shrinkage=0.05


Tree=4
num_leaves=63
num_cat=0
split_feature=3 1 15 3 14 11 14 3 15 3 12 4 0 3 4 10 12 1 3 1 1 7 14 12 17 14 4 0 3 15 11 3 15 1 7 4 14 1 7 11 4 17 4 1 10 12 1 1 2 4 3 1 2 1 1 0 2 3 4 1 1 1
split_gain=366067 261548 14394.9 9033.71 5278.61 4764.03 4654.11 4222.78 2229.33 1815.48 1739.78 1725.23 1687.59 1937.12 1554.08 1537.25 2286.08 1436.61 1233.91 1196.64 856.021 813.995 805.371 1332.98 791.585 1091.17 751.578 724.263 1008.59 667.034 582.984 539.568 532.143 506.834 502.802 443.838 443.564 413.325 403.386 391.129 968.256 381.428 370.163 365.437 358.289 485.642 518.216 351.372 329.954 327.018 326.074 324.303 324.201 456.153 323.752 320.113 318.282 317.183 313.351 293.584 276.179 274.916
threshold=0.0033277962347729793 0.18981727212667468 1.0000000180025095e-35 0.033908045977011504 31.500000000000004 0.087386799379946159 26.500000000000004 0.023532668881506093 1.0000000180025095e-35 0.01941930618401207 1.0000000180025095e-35 66.500000000000014 106.78453445434572 0.41666666666666669 70.500000000000014 17.500000000000004 1.0000000180025095e-35 0.11609233915805818 0.07417582417582419 0.1437647417187691 0.23317534476518634 -1.0000000180025095e-35 11.500000000000002 1.0000000180025095e-35 20.500000000000004 30.500000000000004 51.500000000000007 256.79421997070318 0.22500000000000003 1.0000000180025095e-35 0.06688430649937159 0.03509852216748769 1.0000000180025095e-35 0.14727579802274707 -1.0000000180025095e-35 66.500000000000014 53.500000000000007 0.075537364929914488 -1.0000000180025095e-35 0.076981175923774126 52.500000000000007 10.500000000000002 62.500000000000007 0.13838102668523791 15.500000000000002 1.0000000180025095e-35 0.11742826178669931 0.24421171098947528 0.4450546801090241 61.500000000000007 0.13392857142857145 0.13797780871391299 0.43747559189796453 0.27990795671939855 0.15316721051931384 28.539143562316898 0.3904536664485932 0.080128205128205135 63.500000000000007 0.11258904263377191 0.12911622971296313 0.088943973183631911
decision_type=2 2 2 2 2 2 2 2 2 2 2 2 2 2 2 2 2 2 2 2 2 2 2 2 2 2 2 2 2 2 2 2 2 2 2 2 2 2 2 2 2 2 2 2 2 2 2 2 2 2 2 2 2 2 2 2 2 2 2 2 2 2
left_child=5 2 7 4 21 56 19 14 -6 33 -5 17 34 18 44 16 55 24 32 59 58 -3 23 -16 25 37 43 30 -29 51 50 38 -14 -8 -12 -17 -35 -7 -21 -23 -41 -39 -22 -18 45 -2 -47 48 -34 -48 -20 -19 -32 -54 -11 -9 -1 -36 -10 -4 -13 -25
right_child=1 3 6 10 8 11 9 15 20 54 12 60 13 -15 22 35 26 29 27 31 42 39 -24 61 -26 -27 -28 28 -30 -31 52 -33 47 36 57 -37 -38 41 -40 40 -42 -43 -44 -45 -46 46 49 -49 -50 -51 -52 -53 53 -55 -56 -57 -58 -59 -60 -61 -62 -63
leaf_value=0.076931980396387045 -0.072561058613240956 -0.051308363492906586 -0.062190775303917915 -0.02680494280618443 -0.059354521978382417 0.064624204526111367 -0.070116971259820304 -0.063014716340352203 -0.033126033177151591 -0.048259425647919428 -0.027968850281626875 0.072659293835343752 -0.033456281583781659 -0.073359474705711678 -0.058951178579945765 -0.066808420137430699 -0.047828848537809471 0.026579277703706668 0.00894802545480884 -0.069960983425310361 -0.010581432596905114 0.017421798180419314 -0.062596706094861218 -0.047288049064442145 0.064190586328082 -0.045599109230123086 0.022981572321635148 0.014539820536887774 -0.048808750667426987 0.058224384424806666 0.032568601600732251 0.021977595998264179 0.0097132163423461829 -0.037309601873378492 0.025882901478510124 -0.036895686360847176 -0.061684288251063861 -0.011996354394080755 -0.0036024294351812932 -0.02070090333121578 0.026666517021828186 0.047371762968712761 0.015153805420055162 -0.0046696046257184787 -0.075258884398927042 -0.066165181547417393 -0.044420133174604332 0.015573092864239147 -0.013316934236002038 0.012464302934352635 -0.038841316509234135 0.0010758204942538092 0.011364653689839358 0.025278616683077806 -0.013973888570630283 -0.026362770533227345 0.062323524618629646 0.03451026206526199 -0.0083656212083744689 -0.02608156272389478 0.054458534708049344 0.023117252232831929
leaf_weight=101794.54130386683 23458.832159260754 492.31432551023318 783.28223820074345 1797.9615806963993 3727.0359532922157 1279.6707665836439 5154.3690283952164 3117.2029267456819 5698.8814937624848 856.0187113651773 361.537901226955 8619.6959848550614 637.16185664644581 560.7922349262808 1808.6407128200372 6044.0778677653871 812.16963635396678 3752.5604722088901 1576.01693922095 237.42749068379635 4606.7516541732475 15807.707439852064 11784.815923404487 164.62066925823456 7051.3962023529457 383.6571311642183 1730.3149352717446 3631.499090280704 759.77406061906368 1270.4689705586061 12467.937622461934 2330.2937418111251 5722.4583042797458 3661.8046812750399 17185.773373088188 1560.2010436591809 3806.8351690935087 458.80726420052815 6464.6098998374073 2409.1836608793819 1953.8357335314504 659.35779887926765 2005.5562711490784 1238.1943504981464 110957.27047949767 4926.6650469478045 1685.3161518175912 25037.734802323102 2135.6830127420253 297.20914628123865 461.44789999199566 1866.5015577060403 6654.6554289234336 51293.944928509387 3519.3229461621959 736.47945193528722 3870.3440051772632 28028.551827340154 1647.0773371495889 2000.7386287836998 2748.9693187419325 878.99173995369347
leaf_count=52357 3345596 42776 102269 133208 681850 3154 783268 331516 484377 90093 16901 9430 67757 103812 160661 970758 73833 25204 16565 23131 263177 390096 1817260 10134 17772 8056 46427 63561 89684 3675 128818 48946 183750 371162 250657 153584 511139 8017 312994 147930 56668 2890 63080 52567 21191901 690837 199452 452698 85777 18002 15065 21286 124934 440578 230314 59129 12015 188216 88765 155180 6584 25155
internal_value=6.86931e-10 -0.0241198 -0.064378 0.0168251 -0.00494838 0.0715315 -0.0316825 -0.069881 -0.0249999 -0.0484365 0.0220994 0.0532302 0.0226611 0.0193334 -0.0723356 -0.044759 -0.0289097 0.0430134 0.0198043 -0.00758102 -0.0158268 0.0122135 -0.0568267 -0.0329866 0.0552805 0.0326926 -0.00128592 0.0232965 0.00357931 0.0255055 0.0244915 0.00125275 0.0118015 -0.0580568 0.0307614 -0.0606711 -0.0497336 0.0452194 -0.00595326 0.0137639 0.000511049 0.0230117 -0.00277577 -0.0217654 -0.0739418 -0.0691296 -0.0574787 0.0126781 0.00345409 -0.0358923 -0.00187537 0.0181077 0.0252545 0.0236808 -0.0206817 -0.0560101 0.0763969 0.031231 -0.0275744 -0.0362409 0.0682583 0.0120114
internal_weight=530433 396677 200016 196661 38348.3 133756 28814.7 171201 17685.3 16998.4 158313 28091.1 156515 110939 155962 15238.6 7634.36 16722.4 110378 11816.4 13958.3 20663 14637.1 2852.25 9832.89 2781.49 3780.68 76845.3 4391.27 6889.53 72454 9032.33 33533 12623 45575.9 7604.28 7468.64 2397.84 6702.04 20170.7 4363.02 1118.17 6612.31 2050.36 141325 30368 6909.19 32895.9 7858.14 1982.53 2037.46 5619.06 70416.5 57948.6 4375.34 3853.68 105665 45214.3 7345.96 2784.02 11368.7 1043.61
internal_count=36526448 36356008 31775308 4580700 2218719 170440 2628496 29146812 1581249 1985976 2361981 106068 2228773 1772999 27458998 1687814 563472 90054 1669187 642520 899399 637470 2013210 195950 39889 22117 172827 879205 153245 50165 725960 385071 789982 1665569 455774 1124342 882301 14061 336125 594694 204598 10907 326257 126400 25445788 4253887 908291 722225 269527 217454 31630 46490 694330 565512 320407 390645 64372 438873 573142 257449 16014 35289
is_linear=0
shrinkage=0.05


Tree=5
num_leaves=63
num_cat=0
split_feature=3 1 15 1 11 17 10 3 4 17 3 16 16 4 16 10 12 3 15 0 2 1 10 12 4 3 0 3 4 11 11 1 17 0 17 17 16 3 1 10 1 12 1 3 3 1 4 0 11 2 1 3 15 2 10 12 1 3 11 3 0 4
split_gain=329229 231081 11027.2 9004.97 5226.95 4940.59 3579.19 3464.07 1936.59 1931.64 1680.22 1343.79 1339.31 1334.73 1303.73 1284.26 1837.31 1221.69 1159.59 966.572 974.512 859.983 791.367 1281.11 736.15 709.781 658.667 608.713 604.137 581.849 526.578 525.159 516.916 1282.05 486.998 472.399 465.323 448.669 442.922 407.094 383.716 376.848 375.619 364.369 412.05 363.965 362.705 357.035 391.387 354.302 444.616 350.692 314.101 293.417 284.525 289.608 338.553 280.456 275.146 306.684 261.311 256.778
threshold=0.0033277962347729793 0.18669131398200992 1.0000000180025095e-35 0.2245377525687218 0.10006501950585177 47.500000000000007 31.500000000000004 0.023532668881506093 69.500000000000014 104.50000000000001 0.054093567251461992 1.0000000180025095e-35 1.0000000180025095e-35 66.500000000000014 1.0000000180025095e-35 17.500000000000004 1.0000000180025095e-35 0.013986697965571207 1.0000000180025095e-35 153.53529357910159 0.8490581512451173 0.095145929604768767 15.500000000000002 1.0000000180025095e-35 65.500000000000014 0.037749287749287756 101.01964569091798 0.042572463768115944 58.500000000000007 0.072925108049702883 0.085120759056929285 0.12213049083948137 7.5000000000000009 36.193927764892585 28.500000000000004 2.5000000000000004 1.0000000180025095e-35 0.029857397504456332 0.10946944355964662 39.500000000000007 0.12543815374374392 1.0000000180025095e-35 0.13918173313140872 0.22500000000000003 0.07417582417582419 0.091089706867933287 70.500000000000014 78.238487243652358 0.056461100569259966 0.54131981730461132 0.37001907825469976 0.032795698924731186 1.0000000180025095e-35 0.44130076467990881 16.500000000000004 1.0000000180025095e-35 0.11742826178669931 0.030776515151515155 0.15400627279737308 0.18333333333333338 28.539143562316898 27.500000000000004
decision_type=2 2 2 2 2 2 2 2 2 2 2 2 2 2 2 2 2 2 2 2 2 2 2 2 2 2 2 2 2 2 2 2 2 2 2 2 2 2 2 2 2 2 2 2 2 2 2 2 2 2 2 2 2 2 2 2 2 2 2 2 2 2
left_child=4 2 7 5 29 12 14 13 21 10 11 24 25 54 31 16 60 -8 -7 47 36 -6 23 -15 -5 -3 -13 30 40 53 -14 -4 33 -31 39 -35 -21 -20 -36 -23 -18 -27 -16 44 -11 -25 -17 -12 -49 -38 -51 -19 -40 -1 55 -2 -57 -33 59 -52 -9 -50
right_child=1 3 6 9 8 18 17 15 -10 43 19 26 27 22 42 46 28 51 37 20 -22 34 -24 45 -26 41 -28 -29 -30 32 -32 57 -34 35 38 -37 49 -39 52 -41 -42 -43 -44 -45 -46 -47 -48 48 61 50 58 -53 -54 -55 -56 56 -58 -59 -60 -61 -62 -63
leaf_value=0.073936417040566887 -0.069651378694546712 -0.023986582903812351 -0.060793211974703346 -0.016230742580124261 0.05712708214600664 -0.056337668369896766 -0.059132640598796284 -0.060250558092623779 0.065742864813000332 -0.060053946898022417 0.034176320043191245 0.026016129000150285 0.013273090845461237 -0.058234014369496427 -0.026280936418037248 -0.063517408570585784 -0.053024769738838129 -0.038481977730455016 -0.036402098894628469 0.00020754522859366077 -0.043309450870938904 0.013046554891475449 -0.0626271735655827 -0.046604860745252337 0.019566882982859152 -0.036900226608535751 0.010713607580525156 0.02727382736736101 0.023626375089808457 0.062738588857871119 -0.014561387256614515 -0.028462784729118715 0.068153307264800067 -0.065830907898508498 0.051414391141157811 0.016809547946623576 0.024698083038292525 -0.010090042814938822 0.020802636808949969 -0.054385706242106285 -0.007039038119267902 0.009772764326886469 0.0096959216943577602 -0.06672616867506663 0.0048052390305653777 0.013220564556394303 -0.031513608021822251 0.010196927184328497 0.034162608809663708 0.010206004080627261 0.014892611270087844 -0.010678443941312192 0.050791676438062705 0.052646449738847037 -0.072582733929112006 -0.064748607127442723 -0.039315057839719406 0.00083137237563231294 0.025652822142271083 -0.0332395140702113 -0.027022239480655508 0.024743577282175303
leaf_weight=93552.114025464136 22526.515529990254 4722.0859428177355 1048.6508708732435 5825.2112671867071 3017.6376222347899 4371.4647844081046 9591.0864264536067 3036.2061172947433 7156.8914840910584 370.56871332973242 15149.389595234912 10592.34903817522 6417.3197735512222 2802.5557490566571 843.75493974066922 6192.6049625822925 613.2900446675485 3160.7809492958477 3184.570588158851 3044.6274702803639 629.54495823978505 1032.1183742970461 16877.972897647705 328.76689009409165 1906.0621771496953 489.90560219070176 20920.957967797061 5389.5246355447744 1283.4400216179783 2934.2173976430204 2311.0974320275127 3445.5763063400227 13616.505597251118 245.61779155896511 2049.7175257364288 584.31311847554753 24920.648176322982 3298.0383727157605 6152.9931972371996 285.79646583786234 1742.5289631779015 3690.1567811560235 5176.8212850046693 562.42726257912 721.94759102864191 1121.3710290727613 1032.9742689971608 3905.0716231974366 9155.8982830658788 14198.2760264221 2792.7994079396594 1768.8165461575554 1017.5333641576581 1646.8518946683034 100483.24726877903 4713.7836149244395 1811.1785690540273 1071.0020144503796 12750.726325761119 375.43808634165907 734.87939873966388 34503.056763385262
leaf_count=44759 3309434 406555 149718 413919 11306 758010 1366527 329055 10155 33441 116306 159769 165876 291304 68711 1000049 61663 328436 303263 89054 85021 8848 2877772 26017 64702 30018 598696 88686 28628 5320 158994 291438 16269 3241 4860 3974 251521 141760 47191 3938 78992 105777 173382 100650 24160 42305 92625 38276 63955 167439 26811 103849 3188 7391 19858094 695580 215095 40124 113158 18921 58310 344162
internal_value=-1.12338e-09 -0.0233103 -0.0623967 0.0148215 0.0677852 -0.00862734 -0.0321981 -0.067166 0.0447017 0.0197148 0.0202684 0.0112744 0.00448463 -0.069422 -0.0114719 -0.0439429 -0.0293176 -0.0487351 -0.0364361 0.0231752 0.0185647 0.0335928 -0.0577701 -0.0384935 -0.00740522 -0.0107032 0.0158571 0.0140614 -0.00397396 0.0720322 0.00590312 -0.0289173 0.0636197 0.0472196 0.0268537 -0.00764787 0.0192353 -0.0230158 0.0309174 -0.00157647 -0.0190105 0.00430266 0.00465394 -0.0340275 -0.0171942 -0.00034271 -0.0589421 0.0274915 0.0253624 0.0202879 0.0166387 -0.0285056 0.0250582 0.0735681 -0.0713227 -0.0669646 -0.0576888 -0.0215164 0.0223761 0.00918892 -0.0537753 0.0267189
internal_weight=520899 387607 191408 196199 133292 33874.2 26106.5 165301 20712.7 162325 160670 39244.6 23020.1 150665 11585.8 14635.9 7410.34 14520.7 10854.1 121425 58712.1 13555.8 21130.7 4252.69 7731.27 8902.15 31513.3 14117.9 3639.26 112580 8728.42 5565.23 17380.7 3764.15 10538.2 829.931 58082.5 6482.61 9220.24 1317.91 2355.82 4180.06 6020.58 1654.94 1092.52 1450.14 7225.58 62713.4 47564 55037.9 30117.2 4929.6 7170.53 95199 129535 29051.5 6524.96 4516.58 15919 3168.24 3771.09 43659
internal_count=36526448 36356008 31487108 4868900 170440 2158939 2522185 28964923 89486 2709961 2551710 1237086 955906 27315601 723373 1649322 556648 1798812 1203033 1314624 751925 79331 3237398 359626 478621 542350 758465 413556 169283 80954 324870 481280 28804 12535 68025 7215 666904 445023 55239 12786 140655 135795 242093 158251 57601 68322 1092674 562699 446393 577850 326329 432285 50379 52150 24078203 4220109 910675 331562 158890 45732 387365 408117
is_linear=0
shrinkage=0.05


Tree=6
num_leaves=63
num_cat=0
split_feature=3 15 3 3 11 11 12 3 16 4 16 4 3 14 12 14 3 4 4 8 3 10 12 8 4 4 4 7 11 4 4 4 2 3 0 4 16 14 4 3 3 4 4 14 12 4 8 3 11 11 7 17 0 4 4 14 2 11 2 3 11 17
split_gain=304335 184568 18176.8 16590.6 6790.49 4718.03 2883.14 2657.4 2462.8 2284.81 1975.38 1887.46 1778.25 1512.78 1924.29 1226.38 1128.79 949.173 884.187 879.893 1017.06 850.615 1019.82 832.301 722.702 630.686 629.823 577.526 569.458 424.618 400.4 393.808 389.497 382.353 372.153 341.209 324.611 311.153 301.8 296.219 289.322 287.955 279.749 273.562 273.162 285.062 264.058 263.89 249.177 244.504 243.542 236.241 448.457 248.493 222.848 221.732 217.179 212.989 211.548 207.957 204.17 250.69
threshold=0.0033277962347729793 1.0000000180025095e-35 0.028174603174603175 0.044466403162055343 0.083518964105871576 0.096919688241274157 1.0000000180025095e-35 0.014185110663983905 1.0000000180025095e-35 70.500000000000014 1.0000000180025095e-35 60.500000000000007 0.41666666666666669 16.500000000000004 1.0000000180025095e-35 18.500000000000004 0.019049346879535561 36.500000000000007 56.500000000000007 3.5000000000000004 0.29166666666666669 15.500000000000002 1.0000000180025095e-35 3.5000000000000004 49.500000000000007 77.500000000000014 69.500000000000014 4.5000000000000009 0.11236754199498139 69.500000000000014 60.500000000000007 59.500000000000007 0.32345096766948706 0.087121212121212141 28.539143562316898 70.500000000000014 1.0000000180025095e-35 25.500000000000004 57.500000000000007 0.010050505050505053 0.087121212121212141 65.500000000000014 24.500000000000004 14.500000000000002 1.0000000180025095e-35 59.500000000000007 5.5000000000000009 0.013606071825249909 0.075776098392235328 0.13450809915644571 -1.0000000180025095e-35 7.5000000000000009 34.35907173156739 57.500000000000007 50.500000000000007 13.500000000000002 0.50575882196426403 0.19190554190554193 0.95858630537986766 0.13392857142857145 0.18334908632640204 95.500000000000014
decision_type=2 2 2 2 2 2 2 2 2 2 2 2 2 2 2 2 2 2 2 2 2 2 2 2 2 2 2 2 2 2 2 2 2 2 2 2 2 2 2 2 2 2 2 2 2 2 2 2 2 2 2 2 2 2 2 2 2 2 2 2 2 2
left_child=5 3 4 9 10 32 30 31 23 16 50 28 17 14 -11 24 43 -10 36 29 25 22 -18 26 34 27 40 -21 -7 33 -5 -6 48 -19 -8 49 -9 -33 -24 -16 -4 -17 -12 44 -2 -46 -27 -15 -1 -13 -3 52 -50 -54 -29 -52 -34 -20 -26 -48 -56 -62
right_child=1 2 8 6 7 11 15 18 12 13 42 35 -14 47 39 41 21 19 57 20 -22 -23 38 -25 58 46 -28 54 -30 -31 -32 37 56 -35 -36 -37 -38 -39 -40 -41 -42 -43 -44 -45 45 -47 59 -49 51 -51 55 -53 53 -55 60 -57 -58 -59 -60 -61 61 -63
leaf_value=0.071489525205897395 -0.066692951638073358 -0.069655726762598499 -0.0031135564042971881 -0.047566569932723957 -0.055974120360643455 0.042740903958045862 -0.023797690875499253 -0.040838093593979434 0.025878972964820526 -0.052559419300127419 0.025437918506986651 0.054091141680439825 -0.070787279820144475 -0.059223105562038962 -0.0089108729747596222 -0.043917133435086936 -0.059079950269573717 0.010376540264853171 -0.0052958688953423025 0.02221334654839692 -0.057080157130089196 -0.062561002931040263 -0.025051676441992039 -0.011279959611133816 0.028607526147452267 0.007467442876266106 0.038050150956853913 0.016134669574242422 0.019309580765147247 0.036170691938740285 -0.014385572168852643 0.0039888900456639675 0.061544557501013376 0.025019964624684289 0.012918884293483653 0.065184847486778372 -0.019423779693633833 -0.041971268395342425 0.013623920279517435 0.033589566261369004 0.019281089009277236 0.0017114919422092261 0.0078765258333744672 -0.069553843387487407 -0.059428304128365687 -0.030133546046650618 -0.01350697832075176 -0.040275621520110799 0.064862757799966406 0.026681709451772041 -0.01320676828913203 0.066719091038890718 -0.019844188719124654 0.045020034468420442 0.0055408840166484251 -0.035201025129439907 0.029902661941549315 0.026614514615457548 0.059525147929265082 -0.059921564415148669 0.017247269189497261 -0.026767791520243778
leaf_weight=89385.078606126539 22115.612462853664 288.86357470764779 4621.4560895873583 3394.1920601211896 9933.0406795732852 4500.0645627974882 975.73106655059382 3279.2460813493526 44924.051003162414 2057.9780494672596 2707.9695780201 3444.8852878584876 542.97829358745366 9751.3100035481621 638.29731826053467 1088.8623524548893 2533.1530972528853 5994.8290570764802 3950.4260709891387 21413.97313072726 500.25589122818201 9051.9462542367837 1738.6842523954256 8778.9461246747233 3065.3141180322855 1388.3408701439621 1686.6382630148437 19311.236384078045 6118.8361180219217 6005.4338353918865 1241.8403183701448 417.55620327126235 7725.5864510918036 17386.430184969562 2357.8870796645642 7139.6711168717593 3844.2844358140719 3119.1036104357918 710.55139198771212 1146.1909148816485 2096.4728183265252 506.66490325113409 13948.916850440291 102628.71281829424 5607.6877209544473 974.77268863725476 1218.926047119312 2264.358929095004 1164.6605693611782 1065.2126051441301 2753.4110482081305 10153.157081336016 306.54233384079998 284.86643472709693 15510.308422709466 1962.7658367090626 583.23233929846901 602.6947411618894 675.1262085668277 300.89879198698327 7640.9139182789077 337.80204464215785
leaf_count=40809 3303665 40571 194962 347011 1406575 19934 47949 366793 417168 199642 54879 8494 106238 1657914 32061 126662 312870 122247 238445 241081 57958 1612220 138056 403758 46511 22802 25744 286954 51027 43942 82641 26318 14023 124529 48608 9627 281780 375314 24724 21412 31066 27567 394054 20971970 824994 96568 27726 290787 1251 5210 197101 11281 3528 847 309253 196522 4409 20046 2300 15750 91696 18604
internal_value=2.7304e-10 -0.0226601 0.00933557 -0.060512 -0.0180637 0.0654677 -0.00685034 -0.0357392 0.0173683 -0.0649407 0.00245491 0.0444861 0.019525 -0.0469195 -0.0196108 0.0101696 -0.0669067 0.0198705 -0.0182817 0.017088 0.0139488 -0.0534285 -0.0368368 -0.000513062 0.0191007 0.0144782 0.0107334 0.0155096 0.0292393 0.0243115 -0.0386785 -0.0508727 0.0697307 0.0212655 0.00217215 0.0583838 -0.0292816 -0.036545 -0.0138314 0.0183875 0.00387517 -0.0294276 0.0107315 -0.0683471 -0.0640316 -0.0550901 -0.00829629 -0.0556524 0.0705843 0.0476175 -0.0250899 0.0637904 0.0468573 0.0113992 0.0121556 -0.0223603 0.0593235 -0.0010719 0.034188 -0.0226963 0.0088843 0.0153838
internal_weight=512865 380993 206468 174525 46808.3 131872 13305.6 25146.4 159660 161219 21661.9 22268.7 142476 15858.1 3842.47 8669.59 145361 141933 11676.7 97009.3 67622.7 14034.3 4982.39 17183.5 7074.06 67122.4 8404.57 64214.2 10618.9 29386.7 4636.03 13469.7 109603 23381.3 3333.62 11649.8 7123.53 3536.66 2449.24 1784.49 6717.93 1595.53 16656.9 131327 28698.1 6582.46 2908.17 12015.7 101294 4510.1 5005.04 11909.2 1756.07 591.409 42800.3 4716.18 8308.82 4553.12 3740.44 1519.82 23489 7978.72
internal_count=36526448 36356008 6139876 30216132 3598398 170440 729249 2715271 2541478 29486883 883127 94292 1885948 2201816 253115 299597 27285067 1779710 907064 1362542 1071824 2087870 475650 655530 145368 1013866 251772 947588 70961 290718 429652 1808207 76148 246776 96557 23331 648573 401632 162780 53473 226028 154229 448933 25197197 4225227 921562 66278 1948701 57716 13704 434194 16907 5626 4375 706507 393623 18432 258491 48811 43476 419553 110300
is_linear=0
shrinkage=0.05


Tree=7
num_leaves=63
num_cat=0
split_feature=3 1 1 15 11 14 14 3 4 17 3 16 4 14 3 15 4 16 1 4 16 8 3 10 11 1 3 1 17 10 7 15 1 2 3 3 16 3 3 11 3 14 7 3 14 1 8 1 1 17 10 4 1 17 3 4 8 11 1 8 3 1
split_gain=280315 183842 7660.3 7644.08 5097.92 4662.42 3118.65 2631.36 2124.94 1355.55 1253.37 1363.67 1069.84 953.104 927.702 898.192 894.38 874.826 780.862 695.191 685.167 672.793 857.156 648.029 606.287 592.927 583.777 496.379 490.676 495.293 465.255 436.02 428.722 384.247 342.756 325.827 344.912 321.924 311.522 364.277 293.619 289.554 287.983 273.451 271.93 267.258 265.146 263.648 248.154 316.397 241.28 240.284 239.531 221.988 246.406 218.258 215.948 214.145 209.645 208.904 1035.75 376.904
threshold=0.0033277962347729793 0.18389698117971423 0.22054404020309451 1.0000000180025095e-35 0.099451277342044661 53.500000000000007 25.500000000000004 0.023532668881506093 67.500000000000014 104.50000000000001 0.095454545454545472 1.0000000180025095e-35 66.500000000000014 18.500000000000004 0.013986697965571207 1.0000000180025095e-35 57.500000000000007 1.0000000180025095e-35 0.10946944355964662 69.500000000000014 1.0000000180025095e-35 6.5000000000000009 0.18333333333333338 15.500000000000002 0.11554203354648633 0.27990795671939855 0.037749287749287756 0.12084184214472772 15.500000000000002 26.500000000000004 8.5000000000000018 1.0000000180025095e-35 0.14681108295917514 0.29583275318145758 0.030776515151515155 0.22500000000000003 1.0000000180025095e-35 0.022991543340380553 0.13392857142857145 0.11043408852547267 0.039230769230769243 2.5000000000000004 1.5000000000000002 0.051315789473684217 4.5000000000000009 0.13477791845798495 3.5000000000000004 0.14859332144260409 0.090538889169693007 35.500000000000007 16.500000000000004 70.500000000000014 0.1299334987998009 17.500000000000004 0.03509852216748769 49.500000000000007 2.5000000000000004 0.076981175923774126 0.51143544912338268 2.5000000000000004 0.29166666666666669 0.37001907825469976
decision_type=2 2 2 2 2 2 2 2 2 2 2 2 2 2 2 2 2 2 2 2 2 2 2 2 2 2 2 2 2 2 2 2 2 2 2 2 2 2 2 2 2 2 2 2 2 2 2 2 2 2 2 2 2 2 2 2 2 2 2 2 2 2
left_child=4 3 5 7 33 17 20 12 18 10 11 19 50 16 -8 -7 32 26 28 40 45 59 38 27 -13 34 -3 -14 29 -6 -19 55 -9 57 -26 36 -11 -17 -23 -40 -4 -28 -22 -16 -34 -5 -21 -44 -30 -50 -2 -15 -18 -32 -55 -20 -43 -1 -38 -12 -61 -62
right_child=1 2 9 6 8 15 14 13 -10 35 21 24 23 51 43 37 52 30 31 46 42 22 -24 -25 25 -27 41 -29 48 -31 53 -33 44 -35 -36 -37 58 -39 39 -41 -42 56 47 -45 -46 -47 -48 -49 49 -51 -52 -53 -54 54 -56 -57 -58 -59 -60 60 61 -63
leaf_value=0.069208357826049741 -0.062420584858666708 -0.022397053850579829 -0.018616247775717645 -0.045830260297555096 0.032048963783183969 -0.054228802746387153 -0.055887807818536132 -0.051872143596555224 0.060579103402183844 -0.06204622476436366 0.027290518138810504 0.018990312474263152 -0.044800175402889782 -0.059846750330440512 -0.034468874383813845 -0.040095819803424103 -0.024058583400085456 0.018741007092628773 0.0014036961849741248 0.034534546191611712 0.019758698715801451 0.018954783683074211 -0.033742879589226046 -0.058577266475392686 -0.017126802735799449 0.014762649866395595 -0.032205124794956595 -0.00081580718425547426 0.063836730212688181 -0.049612060227994387 0.010721434421462435 0.046781769990697039 -0.041434726694039609 0.058725885995516272 0.0048047837282126915 -0.062499075949083938 -0.021434653266873854 -0.015678035746329991 -0.026115692674820057 0.011523539417540602 -0.0015596323085038258 0.019402640689603762 -0.029828170594121624 -0.0031049281822775449 -0.002112052675687405 -0.017016893814891913 0.00045817481109892494 0.0022794946564775741 0.023323336633862095 0.056071714855696946 -0.067718135632751406 -0.032515141599691891 0.0090642808453461083 -0.021303231865338289 0.0075627596286184434 0.020230337286165474 -0.0065890984657082964 0.061968966886665901 0.031707202250323009 0.022150345082631445 0.018435799247410966 -0.05123739822599474
leaf_weight=86682.023403105239 27906.764422908527 4492.8293449545454 4272.1118130857649 1099.7445630889852 633.0078416854376 4771.635109062132 9465.8794098393701 3338.4155319688434 8023.214415345341 274.81516186153749 19093.393242362567 38505.354580465806 3286.8630651116546 5571.0358790440368 4101.4792431782407 2166.3744107985985 891.54668222591863 7460.9372436465637 2716.6207253161119 1468.6736358466442 1664.987621004344 8843.0570328534232 1012.728488413326 15683.096271889066 2198.9314856114797 20749.074386068765 479.57969725481234 796.97310708192526 1683.5653799077845 262.75937088608043 2478.4863188808667 1057.4043626035564 861.71439531783108 11580.948670636048 9384.3971318397962 529.85877817549044 395.7222822039912 3581.2794081990141 906.7367580064456 2208.5524290330941 6163.0118706811336 2060.4153942335688 845.03008869782207 836.73359618446557 897.63222946986207 3000.6853747956047 933.79066712630447 2626.9578135579359 1467.797883338586 1482.4795804107562 93530.321969285782 939.79940369923133 1407.5062030250556 1796.0175315889937 1256.5199602752109 3552.6436391257448 1305.452496427024 11579.765747486352 349.4976913354767 45530.18296416683 274.12633281879243 664.95128469752672
leaf_count=39656 4215914 434333 385143 141803 4142 894158 1430578 357584 12730 27534 139763 510631 317135 950834 399080 247127 57274 174170 28919 21912 45748 77869 73119 2850896 163385 311188 23676 42159 2307 6762 64298 3489 69040 23025 237111 100650 22341 186420 20110 33084 237709 50646 62484 37298 43478 216293 41575 92191 7505 2758 19734887 87471 46999 137698 34938 21927 56776 17220 7756 367014 7132 67596
internal_value=-7.02575e-11 -0.022011 0.011484 -0.0586644 0.0630351 -0.0109523 -0.0321799 -0.062701 0.0403877 0.0158476 0.0162923 0.0120343 -0.0647448 -0.0419502 -0.0467227 -0.0381937 -0.0296699 0.00248215 0.0277868 -0.00295966 -0.00950305 0.020829 0.0104244 -0.0539575 0.0147516 0.0097036 -0.0101574 -0.0362165 0.0419711 0.00809497 0.0105943 0.0170817 -0.0413459 0.06734 0.000641382 -0.0306908 -0.014168 -0.0248815 0.0141649 0.000568256 -0.00854257 0.00414277 0.00266313 -0.0291545 -0.021372 -0.0247447 0.0212897 -0.00553503 0.0485196 0.039779 -0.0665007 -0.0559016 -0.00378039 -0.000395097 -0.00942109 0.0120723 0.00932174 0.0683552 0.00348813 0.0228874 0.0210783 -0.0308991
internal_weight=505084 374362 195608 178753 130722 31849.5 23641.5 155112 20879.5 163759 162209 83675.3 141204 13907.7 14404.1 10519.3 7396.82 21330.2 12856.3 12837.6 9237.41 78533.7 12971.1 19766.9 70837.8 32332.4 8338.28 4083.84 5529.61 895.767 12992 7326.67 5097.76 109843 11583.3 1549.89 1020.04 5747.65 11958.3 3115.29 10435.1 3845.45 5136.98 4938.21 1759.35 4100.43 2402.46 3471.99 4633.84 2950.28 121437 6510.84 2299.05 5531.02 3052.54 6269.26 3365.87 98261.8 745.22 65562.7 46469.3 939.078
internal_count=36526448 36356008 5156862 31199146 170440 2304240 2425475 28773671 90539 2852622 2694341 1908654 27160991 1612680 1866956 1327705 574375 976535 77809 686339 558519 785687 204182 3210190 1222315 711684 565431 359294 23474 10904 411104 54335 470102 79901 400496 158281 57631 433547 131063 53194 622852 131098 200423 436378 112518 358096 63487 154675 12570 10263 23950801 1038305 104273 236934 172636 50846 107422 56876 30097 581505 441742 74728
is_linear=0
shrinkage=0.05


Tree=8
num_leaves=63
num_cat=0
split_feature=1 15 2 4 11 11 2 16 1 4 2 11 11 17 1 8 1 11 1 17 1 14 1 2 4 17 1 2 11 4 1 17 0 2 0 12 14 12 17 11 8 2 17 1 4 1 4 7 8 4 1 11 0 11 12 4 14 1 11 17 0 2
split_gain=115824 100621 24180.6 15081.5 13478.3 9197.64 7958.66 6359.96 4873.6 3981.07 3542.06 3069.96 2912.93 3915.75 2986.69 2614.2 2455.21 2186.45 2151.17 2168.71 2089.47 1452.97 3139.54 1356.39 1144.79 1105.41 1081.08 1028.83 1022.68 996.959 986.913 1697.3 1232 978.762 1529.15 969.275 932.831 855.174 818.517 806.705 1817.49 765.531 754.941 697.858 687.061 676.864 632.902 590.305 589.192 576.79 560.643 529.61 516.284 515.099 461.834 457.919 450.608 435.778 427.62 452.275 404.466 394.865
threshold=0.065636217594146742 1.0000000180025095e-35 0.21028968691825869 66.500000000000014 0.089976921580687749 0.04637468423567967 0.43062047660350805 1.0000000180025095e-35 0.23317534476518634 67.500000000000014 0.26403111219406133 0.11737447039963358 0.10620192029614207 19.500000000000004 0.11215069890022279 2.5000000000000004 0.14681108295917514 0.080031397174254323 0.091089706867933287 20.500000000000004 0.2245377525687218 39.500000000000007 0.23317534476518634 0.77934765815734874 69.500000000000014 22.500000000000004 0.10548547282814981 0.26677799224853521 0.071045441472533805 76.500000000000014 0.18389698117971423 21.500000000000004 120.2200164794922 0.18160441517829898 13.827808856964113 1.0000000180025095e-35 23.500000000000004 1.0000000180025095e-35 1.5000000000000002 0.071951371904957442 3.5000000000000004 0.145517572760582 16.500000000000004 0.092150624841451659 60.500000000000007 0.079189866781234755 60.500000000000007 4.5000000000000009 3.5000000000000004 53.500000000000007 0.12911622971296313 0.089298786864672672 104.38026428222658 0.055282421724004646 1.0000000180025095e-35 57.500000000000007 27.500000000000004 0.18389698117971423 0.087386799379946159 29.500000000000004 15.915566444396974 0.68269991874694835
decision_type=2 2 2 2 2 2 2 2 2 2 2 2 2 2 2 2 2 2 2 2 2 2 2 2 2 2 2 2 2 2 2 2 2 2 2 2 2 2 2 2 2 2 2 2 2 2 2 2 2 2 2 2 2 2 2 2 2 2 2 2 2 2
left_child=6 2 4 8 15 10 33 17 12 18 57 30 13 16 58 41 39 27 19 -6 24 -9 47 -24 48 -10 -11 -7 -17 61 31 36 -33 -1 -35 -18 37 45 44 40 54 -2 -30 -44 60 -5 -22 -23 -19 -14 -31 -16 -12 -42 -4 -8 -52 -3 -15 -60 -36 -13
right_child=1 5 3 11 9 7 55 21 25 26 52 29 49 14 51 28 35 20 -20 -21 46 22 23 -25 -26 -27 -28 -29 42 50 -32 32 -34 34 38 -37 -38 -39 -40 -41 53 -43 43 -45 -46 -47 -48 -49 -50 -51 56 -53 -54 -55 -56 -57 -58 -59 59 -61 -62 -63
leaf_value=0.066887303870694512 0.027450073307560947 0.061758867896090142 -0.055146165481536037 0.0096111635140088275 -0.040255226088330744 0.034832138203159217 -0.040153161779655 0.018388028019097391 0.018418442155237913 0.038292115619973227 0.02618648472819321 -0.038365054277892038 -0.060687206129934092 0.045869088476510111 -0.01151520211212291 0.059162157448803633 -0.047612184039857453 -0.016348804861574188 -0.04806825459193631 0.033116785805569142 -0.0068224959661312761 0.0096953208874641459 0.014432795161510635 -0.027630852615424657 0.0064744543385709579 -0.04985389054981032 -0.015742443497588614 -0.0030613734474252336 -0.0081873634174476177 0.010624621084493149 0.037034025852415664 0.035894729126986685 -0.01842388776718866 0.062630601015786658 0.016598038147005386 -9.1378850588791707e-05 -0.050492775882665646 0.014545910471888565 0.052249886355224977 -0.060513430723588058 0.033838250897375736 -0.032271595745418012 0.060139054942686676 0.010670185800907939 0.0439511430899968 -0.034068820725563227 0.018164584987315824 -0.019765164777107422 -0.036433070711607889 -0.051284832053605817 0.046635029300004779 -0.04166994154418547 -0.0013910431217865941 -0.024349804982667644 -0.036688152719216612 0.0065489769462083987 -0.02540270884734467 0.040164273305662961 -0.025781561769948048 0.024838465849278832 -0.033745739744178077 0.032263974310726272
leaf_weight=51102.446948636643 869.75418097924558 11242.606227847456 13981.747735600817 1258.6333739070105 2109.6056165440823 3527.762142349995 1802.5150536515284 81700.65963994278 3115.9680732554989 2660.1204832755466 13695.662802919047 9861.5386768395256 54732.426048399226 1291.0576374493539 1991.7762796632596 8208.2621299691382 1602.6622904522228 5423.201581422356 10690.45203072048 1927.1160111288773 6964.3807265079231 2052.0904555708112 62914.748945191095 1976.7242895391246 2491.5163867413648 732.20906354679028 1419.6912697566877 3638.8985557255801 1043.0533791662019 1958.2401893171627 1949.2707182012382 3871.9682749422209 1429.1969107505865 10683.042058407096 735.21704317617696 3247.1513708840357 1505.4463734208257 2762.8216788032441 1916.0161956577795 20165.121801788453 798.61505243592546 1400.7826304364717 1858.4907044937136 1156.6007965791505 894.37083147815429 3002.9549991831882 3983.9063610021258 9919.8006258291134 11178.373760400689 23235.665004927985 229.173650249606 5413.8470827960409 1937.1928744739853 726.15612488109036 4473.0555245065771 740.50031713792123 4113.5272449120675 2949.0444550881803 638.74648036656436 1427.2353499417659 872.32228652908816 201.94161696516676
leaf_count=72680 49354 58624 1894340 68491 331069 114596 196167 1218119 65935 106353 193397 1501125 10998721 43033 261653 115926 185724 474276 1881812 94882 345865 102802 858425 200037 147946 99048 158573 221959 122263 151881 29017 174569 169053 41275 39023 181256 247435 105922 38240 3477258 43208 206675 21288 95775 21934 281331 100212 749983 1288332 4355114 3633 915621 39205 109006 541141 38090 541491 40472 88593 91967 112537 2716
internal_value=-7.45257e-10 -0.00966235 -0.0351958 -0.0428435 0.00373067 0.0133206 0.0602482 0.00938008 -0.0500482 -0.0242177 0.0391867 -0.0120088 -0.0516446 -0.0429182 -0.0158259 0.0398885 -0.0493987 -0.0092239 -0.0363256 -0.0052277 -0.0151439 0.0137456 0.00881104 0.0131515 -0.0251292 0.00542797 0.0194892 0.0155916 0.0490109 -0.0271824 0.00372646 -0.000967732 0.0212504 0.0635825 0.0523987 -0.015795 -0.0147759 -0.00712123 0.0276569 -0.0534583 -0.0463376 -0.00939455 0.0284783 0.0411626 0.00882311 -0.0211682 0.0022699 -0.0147154 -0.0298722 -0.0578852 -0.0115858 -0.0335597 0.0227691 0.00612681 -0.0506723 -0.026554 -0.0216011 0.0572715 0.023295 0.0091881 -0.0107207 -0.0369478
internal_weight=497405 428659 203062 169718 33343.9 225597 68746.4 195772 137573 18807 29824.5 32144.7 133725 55757.2 10762.7 14536.9 44994.5 37208 14727.2 4036.72 30041.4 158564 76863.4 64891.5 19093.1 3848.18 4079.81 7166.66 12266.4 16364.4 15780.3 13831 5301.17 66203.4 15101 4849.81 8529.86 7024.41 4417.93 40144.7 19979.6 2270.54 4058.14 3015.09 2501.91 4261.59 10948.3 11971.9 16601.6 77968.1 6300.94 7405.62 15632.9 1524.77 18454.8 2543.02 4342.7 14191.7 3357.04 2065.98 1607.54 10063.5
internal_count=36526448 35966502 29812252 26628282 3183970 6154250 559946 5822552 23351618 2572689 331698 3276664 23186635 7832800 1400867 611281 6431933 2693186 2307763 425951 2356631 3129366 1911247 1058462 1910554 164983 264926 336555 355252 2200846 1075818 1046801 343622 325689 253009 366980 703179 455744 211734 6064953 2587695 256029 239326 117063 173494 349822 446077 852785 1762608 15353835 697005 1177274 232602 152214 2435481 234257 545124 99096 223593 180560 151560 1503841
is_linear=0
shrinkage=0.05


Tree=9
num_leaves=63
num_cat=0
split_feature=3 1 15 3 14 14 3 11 15 12 0 3 4 14 12 1 1 3 16 4 4 14 14 12 3 4 7 4 1 17 0 11 0 3 16 2 1 14 14 4 3 10 4 12 1 3 11 2 1 11 1 4 3 8 7 11 2 0 1 11 1 10
split_gain=259275 149372 6355.23 5806.28 3639.55 2507.27 2332.5 1552.54 1470.02 1225.84 1116.46 1070.27 854.201 820.675 1149.69 781.843 704.726 697.509 623.705 586.915 546.07 527.016 505.586 809.644 442.057 433.444 399.254 352.048 332.28 334.638 486.121 309.33 326.978 608.686 307.572 295.487 283.832 262.039 252.281 250.383 249.536 238.444 232.343 230.991 278.488 219.391 216.379 222.252 323.468 240.254 213.79 207.821 203.769 218.089 203.483 203.34 196.641 194.004 191.526 186.298 184.435 176.473
threshold=0.0033277962347729793 0.18389698117971423 1.0000000180025095e-35 0.030776515151515155 36.500000000000007 27.500000000000004 0.023532668881506093 0.091154638799219437 1.0000000180025095e-35 1.0000000180025095e-35 123.5733985900879 0.41666666666666669 70.500000000000014 18.500000000000004 1.0000000180025095e-35 0.25662416219711309 0.12455916404724122 0.011299795709908071 1.0000000180025095e-35 69.500000000000014 62.500000000000007 56.500000000000007 11.500000000000002 1.0000000180025095e-35 0.039230769230769243 49.500000000000007 -1.0000000180025095e-35 76.500000000000014 0.12412497028708459 20.500000000000004 63.215665817260749 0.063855925558053236 256.79421997070318 0.22500000000000003 1.0000000180025095e-35 0.45275297760963445 0.14947072416543963 53.500000000000007 32.500000000000007 57.500000000000007 0.018693221523410204 15.500000000000002 62.500000000000007 1.0000000180025095e-35 0.11742826178669931 0.080128205128205135 0.24597237671486841 0.46107152104377752 0.32725147902965551 0.09063885797070724 0.13318416476249698 70.500000000000014 0.41666666666666669 1.5000000000000002 -1.0000000180025095e-35 0.17583581672564727 0.42750558257102972 24.585177421569828 0.082282405346632018 0.12887018381796475 0.51143544912338268 8.5000000000000018
decision_type=2 2 2 2 2 2 2 2 2 2 2 2 2 2 2 2 2 2 2 2 2 2 2 2 2 2 2 2 2 2 2 2 2 2 2 2 2 2 2 2 2 2 2 2 2 2 2 2 2 2 2 2 2 2 2 2 2 2 2 2 2 2
left_child=7 2 6 4 18 16 12 35 -6 45 26 15 41 14 57 21 -4 -7 27 28 40 56 23 -14 34 50 -11 54 29 30 58 -17 46 39 -18 -1 -19 -38 52 -34 -10 43 -40 -2 -45 -5 47 -33 -49 -50 -16 -15 -28 -54 -3 -22 -12 -8 -9 -30 -41 -20
right_child=1 3 5 9 8 17 13 19 20 10 11 -13 22 51 25 31 24 36 61 -21 55 -23 -24 -25 -26 -27 38 -29 59 -31 -32 32 33 -35 -36 -37 37 -39 42 60 -42 -43 -44 44 -46 -47 -48 48 49 -51 -52 -53 53 -55 -56 -57 -58 -59 -60 -61 -62 -63
leaf_value=0.064904556844505898 -0.061216458124583997 -0.065613587913883192 -0.047298689516106725 -0.041967267082541261 -0.053472454601099506 -0.055052697924017992 -0.056686643806234463 0.051530907029051859 -0.036643818146561868 -0.028106195673544016 0.014884229584530876 -0.065476690946709978 -0.051083055232625588 -0.05677353346409765 -0.047081748952571001 -0.011360825527962831 -0.024925870171266615 -0.051335722386312101 0.024383265981286085 0.060778158856334356 -0.0086688811735232737 -0.0091599948425752937 -0.054324156239918542 0.0060079154089463732 0.015851852943817673 0.010166068390244323 0.019079191222565753 0.033911523676318035 0.040147881370796057 0.053640090953723775 -0.029758955668471199 0.017532450226597229 0.013838817361708559 -0.043466858853594227 -0.0037634243633764062 0.043702850318314342 -0.014702554220217654 -0.040541944570275379 0.00039074358920922171 -0.032053761622027187 -0.017931521800496668 -0.064045337981233588 0.022050460409616422 -0.056695486681546073 -0.032852350391692396 -0.0086712328732800777 0.021286014429279212 0.0057965291272597417 -0.0033885415662956012 0.014844681332705559 -0.011208206613289825 -0.031100016690591925 0.044795142265380263 -0.060675024983047103 -0.015203841718973833 0.020856293596877119 -0.0021801466864760622 -0.033162195178021908 0.017804933433296664 0.018291254768145328 0.011910631425559794 0.0062703509363405494
leaf_weight=100904.20658399555 21429.534874447825 211.69289463822497 1262.281497490374 1073.1609008122468 4364.816464666219 7898.3782983076526 2259.8259400364623 1309.9573584439931 3192.480495655007 462.62443242606241 5046.2956749094301 472.85586723887536 1666.3081022771075 5279.7196886534221 677.3495437354868 1407.7212104491773 2999.1409080101876 1388.4585735520232 1478.4633103202796 8448.8922757059336 2160.7731804300565 8110.8219402654795 10087.764619954658 989.95376786938868 1664.3342689527781 1737.0379049350158 54121.167638479499 357.33846190263284 2807.5329558847297 8327.2384989202255 280.41982279060176 15296.8386871572 3170.5581842031388 698.80061134971038 4016.0119833617791 1670.5821202315856 2424.8553080584097 1647.9830295191205 3442.8784175383626 609.30693131848238 4031.5152930408949 92520.318176532892 1933.4205999153783 4547.0642147345934 1676.0969256019744 917.89297388831619 7272.6286914855591 20663.018768082635 1918.7009705367091 30948.596923975041 1073.576956721954 926.57637617029832 1118.3938306362834 51.259734210034367 3683.8046406733629 798.70016226579901 2536.9804004104226 1431.6486729788594 620.28728452845826 1493.6240961510921 392.0376462120912 14869.045696848014
leaf_count=60084 3342177 31842 163566 135693 945975 1257598 260312 5183 374441 22366 118286 101418 160585 950834 67618 25907 252513 181046 22579 11403 129016 342296 1783366 34950 38706 52422 534056 8209 18752 27127 6951 180450 54822 89675 162118 8486 193106 176822 114004 22982 321688 20936644 35082 690837 212432 43753 53945 328502 29373 287316 54567 87471 5005 4950 311681 25102 68934 139456 9118 23336 7221 380293
internal_value=-5.43627e-10 -0.0212668 -0.0556563 0.00836815 -0.01005 -0.0314041 -0.0595189 0.0619133 -0.0291957 0.0123725 0.0128587 0.00956578 -0.0615224 -0.0396249 -0.0281141 0.0099276 -0.0123913 -0.0455526 0.003471 0.0502587 -0.0187902 -0.000300486 -0.0492138 -0.029806 -0.00731465 -0.00753013 0.0181671 -0.0135862 0.0442692 0.0490493 0.0317563 0.0118762 0.0122802 -0.000279026 -0.0128109 0.0645593 -0.0318132 -0.0251579 0.01852 0.00695501 -0.026201 -0.0628277 0.00817999 -0.0587538 -0.0502738 -0.0266175 0.013084 0.0122173 0.0106985 0.0137803 -0.025086 -0.0529406 0.0195254 0.0401729 -0.0179433 -0.000700652 0.00917535 -0.0475633 0.040693 0.0325579 -0.0148412 0.00790848
internal_weight=492282 366419 169604 196815 35148.6 23301.4 146303 125863 14548.3 161666 159675 98545.2 132917 13385.7 7179.44 98072.3 9941.77 13359.7 20600.3 23288 10183.5 15694.1 12744 2656.26 8679.49 3487.96 61129.7 4252.84 14839.1 10537.9 2210.66 82378.2 80970.5 4870.7 7015.15 102575 5461.3 4072.84 60667.1 4171.9 7224 120173 5376.3 27652.7 6223.16 1991.05 76099.8 68827.2 53530.3 32867.3 1750.93 6206.3 55290.8 1169.65 3895.5 2959.47 7583.28 3691.47 1930.24 4301.16 1001.34 16347.5
internal_count=36526448 36356008 31199146 5156862 2550826 2425475 28773671 170440 1796222 2606036 2426590 1711127 27160991 1612680 574375 1609709 616903 1808572 754604 101870 850247 529516 1978901 195535 453337 174607 715463 351732 90467 48379 21252 1080193 1054286 174700 414631 68570 550974 369928 693097 85025 696129 25182090 149086 4245446 903269 179446 879586 825641 645191 316689 122185 1038305 544011 9955 343523 154118 187220 399768 14301 42088 30203 402872
is_linear=0
shrinkage=0.05


Tree=10
num_leaves=63
num_cat=0
split_feature=3 1 15 1 14 14 11 3 3 14 4 4 4 17 2 3 1 15 15 3 14 10 12 15 12 12 11 12 1 3 14 16 4 1 3 2 0 17 0 2 1 1 11 3 16 11 3 7 3 1 4 7 1 10 14 11 7 4 0 12 1 1
split_gain=239953 136369 5930.5 5324.56 2921.59 2321.29 2200.37 2166.95 1167.37 960.604 898.392 807.749 734.465 669.037 880.84 642.061 638.233 623.469 591.102 560.201 510.623 498.645 782.111 450.137 429.443 394.33 377.51 408.105 373.755 364.999 352.503 352.495 390.086 333.523 327.483 327.297 325.029 321.703 317.481 272.091 270.16 267.621 263.876 254.358 242.583 239.405 300.893 238.623 237.963 227.092 219.944 212.269 211.154 203.495 196.548 179.8 179.298 178.104 175.2 172.608 211.948 170.487
threshold=0.0033277962347729793 0.18389698117971423 1.0000000180025095e-35 0.21345771849155429 49.500000000000007 27.500000000000004 0.094083981921125215 0.023532668881506093 0.046536796536796543 53.500000000000007 69.500000000000014 68.500000000000014 58.500000000000007 57.500000000000007 0.8490581512451173 0.013986697965571207 0.13716911524534228 1.0000000180025095e-35 1.0000000180025095e-35 0.021980676328502421 18.500000000000004 14.500000000000002 1.0000000180025095e-35 1.0000000180025095e-35 1.0000000180025095e-35 1.0000000180025095e-35 0.085901298738388837 1.0000000180025095e-35 0.099463697522878661 0.22500000000000003 20.500000000000004 1.0000000180025095e-35 63.500000000000007 0.12543815374374392 0.048809523809523817 0.32836094498634344 96.050140380859389 13.500000000000002 48.684934616088874 0.95858630537986766 0.30004502832889562 0.27990795671939855 0.12010808524293655 0.41666666666666669 1.0000000180025095e-35 0.072925108049702883 0.18333333333333338 24.500000000000004 0.028174603174603175 0.088405456393957152 63.500000000000007 -1.0000000180025095e-35 0.14947072416543963 15.500000000000002 53.500000000000007 0.29150869436697563 -1.0000000180025095e-35 60.500000000000007 256.79421997070318 1.0000000180025095e-35 0.11742826178669931 0.14727579802274707
decision_type=2 2 2 2 2 2 2 2 2 2 2 2 2 2 2 2 2 2 2 2 2 2 2 2 2 2 2 2 2 2 2 2 2 2 2 2 2 2 2 2 2 2 2 2 2 2 2 2 2 2 2 2 2 2 2 2 2 2 2 2 2 2
left_child=6 2 7 4 19 16 35 11 9 31 28 53 26 36 23 61 -4 57 -11 30 25 22 -13 -15 -21 -14 27 -9 37 55 -3 32 -5 -29 44 -1 39 38 -8 51 -25 -20 -30 45 -18 46 50 58 -19 -24 -38 -10 -17 59 -54 -16 -26 -6 -47 -2 -61 -7
right_child=1 3 5 8 17 15 10 12 13 18 -12 21 20 14 29 52 34 48 41 24 -22 -23 49 40 56 -27 -28 33 42 -31 -32 -33 -34 -35 -36 -37 43 -39 -40 -41 -42 -43 -44 -45 -46 47 -48 -49 -50 -51 -52 -53 54 -55 -56 -57 -58 -59 -60 60 -62 -63
leaf_value=0.06361867123983915 -0.059796391505330497 -0.0026257881511226773 -0.037240764838671302 -0.014157778711352971 -0.058012141785238752 -0.059683785032100936 0.038513836971278956 -0.050190027642888081 -0.033791278861176756 -0.050514832954172986 0.059072247335257413 -0.050373176693991939 -0.030263841481140637 -0.038883772700417416 -0.050974959907052086 -0.048645494227488255 -0.021534433436558573 -0.034936987371124772 -0.013623227334650488 -0.038019086445562698 -0.039587534259435606 -0.05403657971986351 -0.047253005046571483 0.0021387981523235864 -0.049602431975288477 0.013326674271470235 -0.055220123893081466 -0.048245314921080668 0.039821215959780519 -0.059912283165022923 -0.026170605802571401 0.010245122677326392 0.017784378920988473 -0.0019431075664637532 0.018713042733090612 0.052727654187162756 0.0098537127804410093 0.056047022626470301 -0.031526957612122965 0.042969678745376896 0.011881616976150677 0.0047748208326084327 0.023078991693902335 -0.045270666397451989 -0.0019593135355390257 0.015900001337264113 -0.047300716148202485 0.0070964231914362576 -0.013298012410874742 0.0096694716727009234 -0.019506038445796958 0.018797768323641689 -0.013508913312393343 -0.062640024241553446 -0.038149150886626071 0.021560098955832677 0.010569912784629903 -0.036939207060671657 -0.025645784132016455 -0.055846722914753115 -0.034487668808446052 -0.045583567107266916
leaf_weight=95294.881437776348 20434.160117475927 4048.9557476417976 2001.2434356659651 3299.7472420933482 2668.4619128053891 4105.2103586716112 773.06777299899841 1960.4356743366152 193.16922076238552 857.84719600199605 7782.3160791746341 2163.5376997349085 873.66965603188146 493.51414818377816 121.58636880098493 1043.1766853509471 2667.7891924936848 2556.7313876936096 5475.9378173078003 498.13606329876347 1975.3453602298978 12222.234071656014 212.25029090582393 9820.5738634297159 125.60119416128146 1277.3737585679628 5329.9152464932777 577.52107949188212 5183.322535599058 672.35932278251857 2617.2745274714835 22123.620855133166 1345.5734840888181 1190.9461870989762 1177.8117937076604 7436.6911480661947 5467.7199608158553 3763.732388149132 204.61427727498813 1177.1063874941901 25829.278465367039 3093.0657923520193 4310.849085487338 185.83443329439615 3891.0491264057928 49725.90448286444 272.02630299815792 9640.655738832138 2525.4685297841206 1004.213817266369 722.14163683890365 28802.915095034914 2111.9891508700675 86784.686323633287 1312.1290386082255 287.33459567930549 8634.8980196285993 1606.2280807273637 255.05967719244654 4306.0610539847548 1590.4527799297357 4486.8409604031476
leaf_count=55008 3283856 171993 231956 280883 604166 716650 4551 236213 9665 167945 11019 227844 67330 46501 10755 131413 214740 290237 355432 42707 263739 2308541 16649 204225 9423 29614 894594 64937 23902 138856 257139 492375 41174 56253 23531 17245 53197 7728 6561 7564 257558 109966 44426 28550 146676 524654 13899 136506 124133 35056 14899 222907 155935 20399870 132151 7019 249292 271586 11656 679602 209573 672423
internal_value=-3.96178e-10 -0.020716 -0.0542204 0.00756141 -0.0138468 -0.0305491 0.0597561 -0.0580233 0.0107477 0.00278229 0.0454123 -0.0600009 -0.0387181 0.0129047 0.00721088 -0.0443264 -0.0120725 -0.036021 -0.0109438 -0.000817969 -0.0212332 -0.049336 -0.0323383 0.00854121 0.00713942 -0.00437809 -0.0466827 -0.0344796 0.0379447 -0.0372572 -0.0118699 0.007616 -0.00490535 -0.0170638 -0.00556218 0.0628303 0.0151024 0.0494091 0.0238553 0.0194041 0.00919773 -0.00698227 0.0322194 0.0131437 -0.00992144 0.013308 0.00416661 0.0142988 -0.0241841 -0.000262438 0.00642845 0.0184474 -0.0289511 -0.0614719 -0.0229511 -7.08684e-06 0.00970721 -0.0500939 0.015688 -0.0576217 -0.0500856 -0.0523205
internal_weight=484594 359845 164700 195145 25281.8 22797.2 124749 141903 169863 36195.8 22017.9 128718 13185.2 133667 37224.6 13059.3 9737.89 9356.89 9426.85 15924.9 4126.39 15602.2 3380 36143.4 9258.64 2151.04 9058.82 3728.9 14235.6 1081.28 6666.23 26768.9 4645.32 1768.47 7736.65 102732 96442.5 4741.41 977.682 30173.2 35649.9 8569 9494.17 66269.3 6558.84 66083.5 6461.89 59621.6 5082.2 1216.46 6189.86 28996.1 4467.29 113115 3424.12 408.921 8760.5 4274.69 49981 26330.7 5896.51 8592.05
internal_count=36526448 36356008 31199146 5156862 2020676 2425475 170440 28773671 3136186 1447775 98187 27160991 1612680 1688411 664914 1808572 616903 1290122 633343 730554 360683 2588090 279549 508284 301422 96944 1251997 357403 87168 156630 429132 814432 322057 121190 384947 72253 1023497 18840 11112 240136 461783 465398 68328 783361 361416 754811 81995 672816 414370 51705 68096 232572 419499 24572901 288086 17774 258715 875752 536310 4173031 889175 1389073
is_linear=0
shrinkage=0.05


Tree=11
num_leaves=63
num_cat=0
split_feature=3 1 15 1 17 11 3 10 4 17 3 4 15 10 3 16 16 4 4 0 2 10 0 16 4 2 1 1 8 0 1 8 1 7 10 4 3 4 3 3 8 3 3 16 1 3 2 1 4 11 16 17 11 17 0 4 0 3 4 1 15 4
split_gain=222548 125009 5546.98 4792.52 3082 2786.06 2032.9 1977.48 1172.98 841.406 800.223 772.665 722.719 676.508 669.427 639.476 633.238 597.515 479.539 471.218 540.02 460.062 430.224 428.919 389.341 382.841 371.198 346.671 323.975 306.21 272.346 269.281 262.375 261.753 261.723 256.686 254.014 248.729 244.783 228.678 279.879 227.371 275.658 224.989 221.468 221.068 217.351 295.978 233.65 227.89 212.518 210.35 208.063 308.091 502.491 215.092 198.265 197.659 194.913 193.979 284.579 354.015
threshold=0.0033277962347729793 0.18389698117971423 1.0000000180025095e-35 0.2245377525687218 47.500000000000007 0.096919688241274157 0.023532668881506093 24.500000000000004 59.500000000000007 106.50000000000001 0.018693221523410204 68.500000000000014 1.0000000180025095e-35 18.500000000000004 0.060661764705882359 1.0000000180025095e-35 1.0000000180025095e-35 57.500000000000007 58.500000000000007 146.55374145507815 0.8490581512451173 14.500000000000002 86.608959197998061 1.0000000180025095e-35 57.500000000000007 0.32345096766948706 0.091089706867933287 0.12084184214472772 2.5000000000000004 24.585177421569828 0.14124903082847598 3.5000000000000004 0.13318416476249698 5.5000000000000009 52.500000000000007 65.500000000000014 0.029857397504456332 70.500000000000014 0.030776515151515155 0.41666666666666669 1.5000000000000002 0.22500000000000003 0.069047619047619066 1.0000000180025095e-35 0.12291935458779336 0.02409988385598142 0.37773686647415167 0.27990795671939855 36.500000000000007 0.054085850556438796 1.0000000180025095e-35 18.500000000000004 0.075776098392235328 7.5000000000000009 36.193927764892585 62.500000000000007 221.17148590087893 0.012903762903762906 63.500000000000007 0.069306947290897383 1.0000000180025095e-35 51.500000000000007
decision_type=2 2 2 2 2 2 2 2 2 2 2 2 2 2 2 2 2 2 2 2 2 2 2 2 2 2 2 2 2 2 2 2 2 2 2 2 2 2 2 2 2 2 2 2 2 2 2 2 2 2 2 2 2 2 2 2 2 2 2 2 2 2
left_child=5 2 6 4 15 25 11 23 26 14 30 -2 -6 17 16 18 24 29 38 39 31 27 -17 57 -5 52 51 -13 -20 -8 -9 -21 -31 -18 -32 50 -14 44 -3 -16 -41 42 -11 -12 -10 -24 -35 48 -48 -49 -33 -7 -1 54 -54 -56 -37 -4 -15 -27 61 -61
right_child=1 3 7 9 12 8 13 10 37 41 43 21 36 58 19 22 33 -19 28 20 -22 -23 45 -25 -26 59 -28 -29 -30 32 34 35 -34 46 -36 56 -38 -39 -40 40 -42 -43 -44 -45 -46 -47 47 49 -50 -51 -52 -53 53 -55 55 -57 -58 -59 -60 60 -62 -63
leaf_value=0.062953092586282108 -0.060113103049300259 -0.02940931736720781 -0.03249199922821476 -0.016386578362214067 -0.048474984667811118 0.025545679171188725 -0.048776502345225251 -0.05845979756724641 0.051136165573305914 -0.054466851771506446 -0.032159652453208801 -0.039867234225397487 -0.032222881741754937 -0.055356341207272154 0.015664276760964862 0.01661005180034196 0.013948440768998614 -0.0059321921524180636 0.022677760270572611 0.01654520904693782 -0.035826135157889731 -0.052695208838569513 -0.010545456600180247 0.00062180883643794197 0.0062301111362561305 0.057688537675035692 0.022654396036829092 2.8207473850816898e-05 -0.01203224728834403 -0.044758052886421387 -0.031006092502516042 -0.008558807632155099 -0.0087098422868853841 0.012893718893257085 -0.05094327855333957 0.0031392479611492734 -0.011864135102826788 0.057965639834884147 -0.0091368794397931937 0.043820330725008162 -0.0533738019168584 -0.057477722761612761 0.0049551775657050399 -0.0078870978296920798 0.028494952493200429 0.0058545909297711921 0.010566389353618456 -0.022682922497426504 -0.010289844235474759 0.010100969648685286 0.010740683140596374 0.059293970485960218 0.053542732099049577 0.059196291146472707 -0.030661591743870988 0.038295216610297923 -0.020427883386294598 -0.0082894999668997205 -0.034704184714293984 0.0081951773684497756 0.061805851977534604 0.047787107593470143
leaf_weight=83431.224359693646 109261.25900382717 2839.9706979897019 2104.955894486513 4718.4800362240057 4334.1296970509429 726.18990256931284 2604.5302823007296 3907.3868435891345 2994.0092191799195 287.71343202293792 2153.7236985212367 2652.1204972194391 2992.8201077050762 4492.3328798262519 53431.253234944743 5954.3044449492008 13252.716197929156 2237.1295321036887 1451.4469714844308 13104.859459398693 643.58391191580449 11837.046079951077 3503.9747800155019 4413.3258438681369 3188.9169905557646 4376.8884412667248 7279.8996224569273 685.19671132689109 1252.2952563705621 841.21443071545946 3035.1038063770684 1482.9389559114934 1262.0932661444531 6490.0012386130111 3596.8402473550523 5950.0365747722099 3139.1938796174945 6748.1327168340795 3130.352731936553 1144.1239484411199 79.194860769537627 457.98561827953381 606.78452651837142 1714.8838893488573 1689.5663422752405 4968.5140372264723 1761.512193093542 564.71683969162405 5650.3964719010983 8643.2782996998285 37418.725861867802 1267.8104457737645 1201.3771497136913 9552.0537025381345 320.29678649999551 174.80390892596915 1049.8973734177416 1407.7999209798872 1532.1292448622262 945.57624655088875 1195.5665977993049 1401.3868958737003
leaf_count=40809 24572901 337136 222652 380902 908116 7136 283455 689759 6824 32271 204880 246209 334855 869535 439552 125700 209642 100854 42221 100399 91329 2308541 193575 170035 133409 5299 60274 33340 81816 98031 368495 54614 76660 134011 576739 90112 147320 9627 146386 6011 9304 96508 22610 100227 8655 129776 42738 9410 249283 191854 385441 1776 1646 11281 3487 493 30561 92688 184145 8343 987 3803
internal_value=8.50661e-11 -0.020188 -0.052925 0.00683806 -0.010338 0.0578328 -0.0566814 -0.0298144 0.0411025 0.0104431 -0.0408494 -0.0586448 -0.0328467 -0.0378432 0.0107781 -0.000140112 0.00555793 -0.0272074 -0.0108687 0.0127998 0.00972686 -0.0480725 0.00631041 -0.00975513 -0.00726566 0.0612091 0.0278897 -0.0316762 0.00660109 -0.0373173 -0.0479885 0.0102237 -0.0231273 0.00834654 -0.041819 0.00841892 -0.0218005 0.0518213 -0.0187801 0.0161537 0.0375282 -0.028827 -0.0141578 -0.0214001 0.0429685 -0.000927991 0.00513405 0.00210393 -0.00533316 0.00809037 0.010005 0.0470033 0.0620925 0.055709 0.0360738 -0.00631519 -0.00039551 -0.0227924 -0.0501041 0.0506485 0.0419504 0.0318358
internal_weight=476538 353233 159739 193494 33567 123305 137405 22334 20705.6 159927 14407.9 124436 10466.1 12969.4 158575 23100.9 44270 6944.97 8674.07 114305 59650 15174.4 14426.8 7926.08 7907.4 102599 9273.9 3337.32 2703.74 4707.84 10539.3 59006.5 2103.31 36362.6 6631.94 45901.6 6132.01 11431.7 5970.32 54654.6 1223.32 1352.48 894.498 3868.61 4683.58 8472.49 23109.9 16619.9 7411.91 9208 38901.7 1994 94679.8 11248.5 1696.48 495.101 6999.93 3512.76 6024.46 7919.42 3542.53 2346.96
internal_count=36526448 36356008 31199146 5156862 2446901 170440 28773671 2425475 94292 2709961 1940100 27160991 1390291 1612680 2558572 1056610 1351249 559000 607559 1207323 752456 2588090 449051 485375 514311 76148 69186 279549 124037 458146 1634993 661127 174691 836938 945234 560728 482175 25106 483522 454867 15315 151389 54881 305107 15479 323351 627296 493285 292021 201264 440055 8912 57716 16907 5626 3980 120673 315340 1053680 18432 13133 12146
is_linear=0
shrinkage=0.05


Tree=12
num_leaves=63
num_cat=0
split_feature=3 15 3 3 14 11 16 12 4 4 3 14 12 3 14 3 16 0 3 10 12 4 3 2 11 8 8 3 4 8 0 2 4 3 11 14 4 4 4 11 11 3 4 0 4 8 4 3 0 4 14 2 4 3 2 0 11 17 0 12 4 17
split_gain=208026 103254 10501.2 9507.68 3843.1 3358.55 1887.65 1802.87 1484.3 1402.2 971.591 917.371 1241.04 742.964 741.117 727.784 681.921 536.005 519.072 518.758 633.031 494.96 404.402 397.096 394.833 344.099 299.129 814.867 310.5 287.746 280.676 280.444 279.336 274.044 265.066 258.675 256.559 248.256 240.16 284.168 238.057 231.023 224.247 219.218 268.808 213.768 209.153 195.321 190.142 184.599 183.951 179.547 177.911 175.463 169.237 167.517 166.903 201.965 356.653 166.833 178.97 161.59
threshold=0.0033277962347729793 1.0000000180025095e-35 0.044466403162055343 0.018693221523410204 20.500000000000004 0.096919688241274157 1.0000000180025095e-35 1.0000000180025095e-35 70.500000000000014 69.500000000000014 0.41666666666666669 16.500000000000004 1.0000000180025095e-35 0.042572463768115944 18.500000000000004 0.019049346879535561 1.0000000180025095e-35 72.742183685302749 0.0085107924090974969 15.500000000000002 1.0000000180025095e-35 52.500000000000007 0.051315789473684217 0.32248716056346899 0.11629556325251526 4.5000000000000009 2.5000000000000004 0.29166666666666669 50.500000000000007 4.5000000000000009 34.35907173156739 0.63636940717697155 53.500000000000007 0.29166666666666669 0.089298786864672672 44.500000000000007 65.500000000000014 63.500000000000007 62.500000000000007 0.085901298738388837 0.13773019997740371 0.22500000000000003 60.500000000000007 185.56726074218753 68.500000000000014 5.5000000000000009 71.500000000000014 0.010050505050505053 114.71195602416994 71.500000000000014 14.500000000000002 0.50094658136367809 57.500000000000007 0.013606071825249909 0.95858630537986766 114.25475311279298 0.075776098392235328 10.500000000000002 55.617185592651374 1.0000000180025095e-35 51.500000000000007 14.500000000000002
decision_type=2 2 2 2 2 2 2 2 2 2 2 2 2 2 2 2 2 2 2 2 2 2 2 2 2 2 2 2 2 2 2 2 2 2 2 2 2 2 2 2 2 2 2 2 2 2 2 2 2 2 2 2 2 2 2 2 2 2 2 2 2 2
left_child=5 2 8 4 16 23 13 36 15 24 17 12 -10 37 21 50 -3 -8 34 20 -17 30 35 56 32 46 33 28 -28 -30 -9 40 48 42 -6 -19 -4 -5 39 -20 -29 -31 -24 44 -37 -39 -15 -14 61 -16 59 -25 -22 -13 -23 -26 -1 58 -58 -2 -61 -7
right_child=1 3 7 6 18 9 10 14 11 -11 -12 53 47 25 49 19 -18 22 38 -21 52 54 26 51 55 -27 27 31 29 41 -32 -33 -34 -35 -36 43 -38 45 -40 -41 -42 -43 -44 -45 -46 -47 -48 -49 -50 -51 -52 -53 -54 -55 -56 -57 57 -59 -60 60 -62 -63
leaf_value=0.061802829285011046 -0.057229999756766174 -0.021683399438241529 -0.040044367731002034 -0.023067583625136778 -0.029993369616800755 0.0064164645319569474 0.02011412400912703 -0.015030508919821328 -0.046356138407697686 0.056151687138146777 -0.061557584985888605 -0.051024362093388544 -0.010828320955412264 0.0039291242320577749 -0.035192813980576582 -0.050915767308086717 0.0037845768421978748 0.0079039922557219144 -0.01291261229026729 -0.053849550047906362 -0.022810850310068576 0.021751290058142584 0.010182832141290085 0.051553695410789871 0.024199032146475934 -0.010473451356009566 0.012542169214037453 -0.073068488010061924 0.012197998641292335 0.003716980873337398 0.013654069850003198 -0.05112802207448628 0.048402189511880772 0.03234836013976683 -0.051672789019226409 -0.01124708015509744 -0.0099445572768183492 0.0081854750574523565 -0.013907643077235722 -0.038713913858797258 0.036616446142890516 -0.033233292770630814 0.024711762124063608 0.0095401613202795998 0.013257262421583258 -0.027613049224314401 0.025041302996663933 0.024409051490114131 0.0062966804264217597 0.0077794702503805853 -0.059886262422932712 0.023700722791415305 0.0079306822780081006 -0.034568011380866008 0.051272652416377795 0.0048810258276136033 0.046675509739669697 0.058613715007706402 -0.039254046703845004 -0.053072728846304346 -0.033539541864914944 0.038492005899368728
leaf_weight=81744.348122141644 19372.111259872385 3489.0219739155727 3427.5047161097173 6020.6787139718654 1812.0961513275397 460.3386874893913 13061.427106716903 1639.3206622115104 1919.0504095257493 7067.2087165033445 470.07628837632365 8361.0196723378613 605.41013352322625 6304.7433845070773 1159.1539583350241 2313.0848534629476 10655.082789474138 16292.587551279925 1320.3136204590846 7616.0003494850243 1585.7655823827372 2676.1204076756258 9250.2397127054282 7244.8872240078636 5354.5244478765526 3823.9350179820904 57551.235531629747 66.060410457321268 13925.254024489797 21129.730842874735 1777.4789114430023 731.97053013933328 3064.2938657001941 2528.1768270257744 6352.9483731351502 6077.9488647611579 892.23278802947607 1378.4856158658513 1954.4057491518033 5565.8974603173265 196.95542736462085 431.66137220457313 3725.4304621742922 2864.6558739309548 1371.758952904871 597.88582962704822 1441.2822064576321 1122.2532695708796 787.97712334408425 318.6071265679202 82905.298282865464 628.8138267644681 669.27835737494752 2008.9890513500868 593.05694226361811 1419.7703265476157 2054.2496117700648 8812.1059216225985 128.29540274624014 4150.4704270607908 1634.4684216246533 2670.4123908753973
leaf_count=40761 3303665 327344 374512 543002 186961 7664 127389 71209 199642 10625 106238 1657914 32061 184452 139322 312870 291411 352344 86093 1612220 138056 39520 72291 13728 38165 157268 516942 3908 137422 316522 32570 83028 7727 12117 1091798 316992 55140 60407 165273 758239 3263 32137 22025 83123 43272 40077 18538 21412 4619 14907 20971970 4803 24724 290787 2069 16370 5113 10076 1667 704999 216563 9122
internal_value=4.5905e-10 -0.0197044 -0.0515704 0.00363102 -0.021755 0.0563267 0.00830342 -0.00770569 -0.0556488 0.0380495 0.0102127 -0.0402508 -0.0186804 -0.00630114 0.00611624 -0.0574437 -0.00249778 0.0104388 -0.0377717 -0.0458593 -0.0325379 0.0131988 0.00951056 0.0601096 0.0287504 0.00179896 0.0108536 0.00979266 0.010274 0.00659554 -0.000108289 -0.0352159 0.0370933 0.0172885 -0.0468614 0.00398138 -0.0338273 -0.0180202 -0.0293766 -0.033767 0.00906741 0.00297723 0.0143542 -0.00221479 -0.00673495 -0.00264418 0.00785741 0.0120611 0.0282502 -0.0259279 -0.0587499 0.0493293 -0.013687 -0.0478363 0.0271067 0.0201503 0.0610249 0.0552412 0.0416244 -0.0550049 -0.0475538 0.0337757
internal_weight=468576 347139 146747 200392 31149.8 121437 169242 12483.5 134263 20824.5 149675 14016.7 3646.71 19567 8163.74 120246 14144.1 149205 17005.7 12184.1 4568.13 6685.98 136144 100613 13757.3 11570 109537 94032.9 93037.9 35486.6 3416.8 994.986 6983.02 15503.8 8165.04 26607 4319.74 7997.05 8840.62 6886.21 263.016 21561.4 12975.7 10314.4 7449.71 1976.37 7746.03 1727.66 3918.73 1477.76 108062 7873.7 2255.04 10370 3269.18 6774.29 92739 10994.7 2182.55 25157.1 5784.94 3130.75
internal_count=36526448 36356008 30216132 6139876 2907119 170440 3232757 729249 29486883 94292 2229013 2201816 253115 1003744 299597 27285067 618755 2122775 2288364 2087870 475650 145368 1995386 76148 83667 360258 1199655 1093222 1003023 486081 103779 90199 29132 106433 1278759 795731 429652 643486 1009605 844332 7171 348659 94316 443387 360264 100484 202990 53473 21405 154229 25197197 18531 162780 1948701 41589 54535 57617 16856 6780 4225227 921562 16786
is_linear=0
shrinkage=0.05


Tree=13
num_leaves=63
num_cat=0
split_feature=3 15 3 3 14 14 12 4 16 4 14 12 3 3 17 16 14 10 17 3 3 7 2 4 10 12 0 4 14 17 3 2 0 8 0 7 3 4 16 7 3 14 0 4 8 14 4 2 8 4 7 3 7 5 2 7 17 10 10 4 14 17
split_gain=194763 95560.4 9806.36 8527.02 3567.13 2589.13 1641.35 1426.76 1308.83 982.373 972.444 1279.23 917.924 881.03 789.393 737.88 675.059 598.224 588.045 570.802 553.91 547.821 478.064 468.416 400.029 517.597 374.095 359.837 351.983 391.735 348.216 359.067 407.105 306.982 283.806 279.582 278.288 266.947 262.351 284.382 255.605 236.49 262.712 231.738 196.316 195.167 192.094 191.432 189.964 201.31 187.762 184.778 181.046 180.327 171.925 170.86 166.369 245.201 165.558 163.807 160.533 823.823
threshold=0.0033277962347729793 1.0000000180025095e-35 0.044466403162055343 0.022991543340380553 20.500000000000004 33.500000000000007 1.0000000180025095e-35 66.500000000000014 1.0000000180025095e-35 69.500000000000014 16.500000000000004 1.0000000180025095e-35 0.011050061050061052 0.41666666666666669 23.500000000000004 1.0000000180025095e-35 18.500000000000004 49.500000000000007 39.500000000000007 0.020204081632653064 0.080128205128205135 2.5000000000000004 0.32345096766948706 70.500000000000014 15.500000000000002 1.0000000180025095e-35 28.539143562316898 62.500000000000007 11.500000000000002 10.500000000000002 0.10555555555555557 0.77934765815734874 221.17148590087893 5.5000000000000009 111.50645065307619 44.500000000000007 0.18333333333333338 59.500000000000007 1.0000000180025095e-35 6.5000000000000009 0.012739370334307045 38.500000000000007 77.776927947998061 55.500000000000007 3.5000000000000004 38.500000000000007 31.500000000000004 0.49638305604457861 6.5000000000000009 72.500000000000014 -1.0000000180025095e-35 0.013423423423423427 1.5000000000000002 2.297549962997437 0.95858630537986766 -1.0000000180025095e-35 46.500000000000007 56.500000000000007 17.500000000000004 71.500000000000014 16.500000000000004 6.5000000000000009
decision_type=2 2 2 2 2 2 2 2 2 2 2 2 2 2 2 2 2 2 2 2 2 2 2 2 2 2 2 2 2 2 2 2 2 2 2 2 2 2 2 2 2 2 2 2 2 2 2 2 2 2 2 2 2 2 2 2 2 2 2 2 2 2
left_child=5 2 7 4 15 22 43 19 20 14 11 -9 41 21 45 55 23 44 -19 -2 33 53 60 26 25 -21 -8 38 47 58 35 48 -33 37 56 46 -34 -5 -14 -40 -13 42 -6 -4 -16 -7 -23 -24 -32 -50 -17 -12 -52 -10 -28 -3 57 -20 -30 -18 -1 -62
right_child=1 3 6 8 12 9 16 10 13 -11 51 40 27 -15 17 50 59 18 34 24 -22 30 28 -25 -26 -27 54 -29 29 -31 31 32 36 -35 -36 -37 -38 -39 39 -41 -42 -43 -44 -45 -46 -47 -48 -49 49 -51 52 -53 -54 -55 -56 -57 -58 -59 -60 -61 61 -63
leaf_value=0.06058954715461639 -0.057978900793799082 -0.062649008768647485 -0.041667372737585862 -0.01152595059746781 -0.052134334427953136 -0.0094914798149182342 -0.016570549533809393 -0.046109826611212268 0.0050515131750307248 0.055508975334115862 -0.051458940200784911 -0.014346014770360292 -0.037958861258627734 -0.060149966579617159 0.030219131306198702 -0.041605714740809083 -0.034505063162902007 -0.030286232074598341 0.033189416011723906 -0.051124978007351995 0.0096722697175285789 0.011658806635844451 0.052761653404668589 0.037286920807947918 -0.053432498907008741 -0.0145568545895228 0.0081146987912126961 -0.0051583509648009907 0.018949129404601615 0.053549464764328925 0.013529419017781916 0.010317082622645147 0.0055884677497291205 -0.022106428033764391 0.018805833253942181 -0.0090254242486345893 -0.053186410074146352 0.0064911526451988171 0.003854625849945531 -0.02665497765720308 0.019205084942583564 -0.048951898198477617 -0.023202490497026943 -0.017264730586814363 0.049066539700696944 -0.079027016295109581 0.0046933973712621297 0.02536749101921594 0.0065941900741746662 -0.031622864549316787 0.016418304551259626 -0.037513016883659656 0.0020043945541264058 0.01625529583885519 0.035386659236945721 -0.018008882619006513 0.04777247324270948 -0.031691401504663881 -0.047306944719969789 0.0058470110924777122 0.0033108329251488669 0.057515067702028244
